{"learner":{"attributes":{"scikit_learn":"{\"_estimator_type\": \"classifier\"}"},"feature_names":[],"feature_types":[],"gradient_booster":{"model":{"cats":{"enc":[],"feature_segments":[],"sorted_idx":[]},"gbtree_model_param":{"num_parallel_tree":"1","num_trees":"300"},"iteration_indptr":[0,1,2,3,4,5,6,7,8,9,10,11,12,13,14,15,16,17,18,19,20,21,22,23,24,25,26,27,28,29,30,31,32,33,34,35,36,37,38,39,40,41,42,43,44,45,46,47,48,49,50,51,52,53,54,55,56,57,58,59,60,61,62,63,64,65,66,67,68,69,70,71,72,73,74,75,76,77,78,79,80,81,82,83,84,85,86,87,88,89,90,91,92,93,94,95,96,97,98,99,100,101,102,103,104,105,106,107,108,109,110,111,112,113,114,115,116,117,118,119,120,121,122,123,124,125,126,127,128,129,130,131,132,133,134,135,136,137,138,139,140,141,142,143,144,145,146,147,148,149,150,151,152,153,154,155,156,157,158,159,160,161,162,163,164,165,166,167,168,169,170,171,172,173,174,175,176,177,178,179,180,181,182,183,184,185,186,187,188,189,190,191,192,193,194,195,196,197,198,199,200,201,202,203,204,205,206,207,208,209,210,211,212,213,214,215,216,217,218,219,220,221,222,223,224,225,226,227,228,229,230,231,232,233,234,235,236,237,238,239,240,241,242,243,244,245,246,247,248,249,250,251,252,253,254,255,256,257,258,259,260,261,262,263,264,265,266,267,268,269,270,271,272,273,274,275,276,277,278,279,280,281,282,283,284,285,286,287,288,289,290,291,292,293,294,295,296,297,298,299,300],"tree_info":[0,0,0,0,0,0,0,0,0,0,0,0,0,0,0,0,0,0,0,0,0,0,0,0,0,0,0,0,0,0,0,0,0,0,0,0,0,0,0,0,0,0,0,0,0,0,0,0,0,0,0,0,0,0,0,0,0,0,0,0,0,0,0,0,0,0,0,0,0,0,0,0,0,0,0,0,0,0,0,0,0,0,0,0,0,0,0,0,0,0,0,0,0,0,0,0,0,0,0,0,0,0,0,0,0,0,0,0,0,0,0,0,0,0,0,0,0,0,0,0,0,0,0,0,0,0,0,0,0,0,0,0,0,0,0,0,0,0,0,0,0,0,0,0,0,0,0,0,0,0,0,0,0,0,0,0,0,0,0,0,0,0,0,0,0,0,0,0,0,0,0,0,0,0,0,0,0,0,0,0,0,0,0,0,0,0,0,0,0,0,0,0,0,0,0,0,0,0,0,0,0,0,0,0,0,0,0,0,0,0,0,0,0,0,0,0,0,0,0,0,0,0,0,0,0,0,0,0,0,0,0,0,0,0,0,0,0,0,0,0,0,0,0,0,0,0,0,0,0,0,0,0,0,0,0,0,0,0,0,0,0,0,0,0,0,0,0,0,0,0,0,0,0,0,0,0,0,0,0,0,0,0,0,0,0,0,0,0,0,0,0,0,0,0,0,0,0,0,0,0],"trees":[{"base_weights":[-2.6214456E-3,-1.1969059E0,1.8610346E0,-1.543811E0,4.6077345E-2,-1.9971131E-1,1.8816799E0,-3.1793576E-1,-1.8014106E0,6.852561E-1,-9.008394E-1,3.7766546E-1,1.900582E0,9.7674996E-1,-1.8356351E0,-1.5947446E0,-1.9383438E0,-1.2841979E0,1.1011498E0,-1.3572932E0,1.4562233E-1,-1.699423E0,1.5624138E0,-1.9821428E-1,1.9039737E0,1.9992948E-1,-3.9039025E-1,4.6679363E-1,-1.9852592E0,1.972672E0,-1.7054541E0,-1.9466935E0,-9.6623725E-1,9.332462E-1,-1.6107736E0,-1.9966513E-1,1.1882306E0,1.398896E-1,-1.6354203E0,1.6587349E0,-7.012612E-1,8.253309E-1,-1.996176E-1,1.8019385E0,-1.9694656E-1,-1.977716E-1,1.9066898E0,1.7944686E-1,-1.3353832E-1,-1.990184E-1,1.3410206E-1,-1.9998305E-1,-5.5957656E-2,1.9906636E-1,1.8242536E-1,7.6709375E-2,-1.7522232E-1,-1.7046385E-1,-1.9685079E-1,1.14080824E-1,-1.6544676E-1,1.2745453E-1,-1.9681275E-1,-3.4078017E-2,-1.893752E-1,-1.9966102E-1,1.2791912E-1,8.128773E-2,-1.9957173E-1,5.948781E-2,-1.8372388E-1,1.7826724E-1,-1.969112E-1,1.19873844E-1,-1.9990319E-1,1.9328035E-1,-1.8918918E-1,1.9015831E-1,-1.9215687E-1,-1.9772728E-1,1.909356E-1],"categories":[],"categories_nodes":[],"categories_segments":[],"categories_sizes":[],"default_left":[0,0,0,0,0,0,0,0,0,0,0,0,0,0,0,0,0,0,0,0,0,0,0,0,0,0,0,0,0,0,0,0,0,0,0,0,0,0,0,0,0,0,0,1,0,0,0,0,0,0,0,0,0,0,0,0,0,0,0,0,0,0,0,0,0,0,0,0,0,0,0,0,0,0,0,0,0,0,0,0,0],"id":0,"left_children":[1,3,5,7,9,-1,11,13,15,17,19,21,23,25,27,29,31,33,35,37,39,41,43,-1,45,-1,47,49,51,53,55,57,59,61,63,-1,65,67,69,71,73,75,-1,77,-1,-1,79,-1,-1,-1,-1,-1,-1,-1,-1,-1,-1,-1,-1,-1,-1,-1,-1,-1,-1,-1,-1,-1,-1,-1,-1,-1,-1,-1,-1,-1,-1,-1,-1,-1,-1],"loss_changes":[7.412122E5,8.751494E4,1.0363469E4,5.0106125E4,2.680424E4,0E0,3.677125E3,5.414436E4,3.7075312E3,2.1657469E4,8.524973E3,3.9570654E3,1.6862812E3,2.0788852E4,4.3708867E3,2.06435E4,6.3825E2,3.340083E3,5.8912383E3,5.174787E3,6.948085E3,4.3930542E2,8.696543E2,0E0,1.349625E3,0E0,1.3141612E4,1.6670059E3,2.4632422E2,5.708008E-1,5.8628438E3,4.0946875E2,9.786686E2,5.891755E2,1.4436357E3,0E0,6.1538965E3,2.8009773E3,4.7182754E3,8.783491E2,8.574685E3,1.9066696E2,0E0,3.595796E2,0E0,0E0,1.32475E3,0E0,0E0,0E0,0E0,0E0,0E0,0E0,0E0,0E0,0E0,0E0,0E0,0E0,0E0,0E0,0E0,0E0,0E0,0E0,0E0,0E0,0E0,0E0,0E0,0E0,0E0,0E0,0E0,0E0,0E0,0E0,0E0,0E0,0E0],"parents":[2147483647,0,0,1,1,2,2,3,3,4,4,6,6,7,7,8,8,9,9,10,10,11,11,12,12,13,13,14,14,15,15,16,16,17,17,18,18,19,19,20,20,21,21,22,22,24,24,26,26,27,27,28,28,29,29,30,30,31,31,32,32,33,33,34,34,36,36,37,37,38,38,39,39,40,40,41,41,43,43,46,46],"right_children":[2,4,6,8,10,-1,12,14,16,18,20,22,24,26,28,30,32,34,36,38,40,42,44,-1,46,-1,48,50,52,54,56,58,60,62,64,-1,66,68,70,72,74,76,-1,78,-1,-1,80,-1,-1,-1,-1,-1,-1,-1,-1,-1,-1,-1,-1,-1,-1,-1,-1,-1,-1,-1,-1,-1,-1,-1,-1,-1,-1,-1,-1,-1,-1,-1,-1,-1,-1],"split_conditions":[5.489805E0,2.2E1,2.00001E0,4E0,3.2718477E0,-1.9971131E-1,2.00001E0,3.2192757E0,3.2449334E0,1.9851309E0,4.706914E0,6.4595914E0,2.00001E0,2.00001E0,2.00001E0,2.00001E0,5.4272823E0,2.00001E0,2.00001E0,2.00001E0,2.00001E0,2E0,2.501E3,-1.9821428E-1,2.00001E0,1.9992948E-1,2.00001E0,4.572647E0,5.4272823E0,3.0809922E0,2.00001E0,2.00001E0,2.00001E0,1.97E3,2.00001E0,-1.9966513E-1,2.00001E0,4.001132E0,2.00001E0,5.020652E0,2.00001E0,2.00001E0,-1.996176E-1,1.1E1,-1.9694656E-1,-1.977716E-1,2.00001E0,1.7944686E-1,-1.3353832E-1,-1.990184E-1,1.3410206E-1,-1.9998305E-1,-5.5957656E-2,1.9906636E-1,1.8242536E-1,7.6709375E-2,-1.7522232E-1,-1.7046385E-1,-1.9685079E-1,1.14080824E-1,-1.6544676E-1,1.2745453E-1,-1.9681275E-1,-3.4078017E-2,-1.893752E-1,-1.9966102E-1,1.2791912E-1,8.128773E-2,-1.9957173E-1,5.948781E-2,-1.8372388E-1,1.7826724E-1,-1.969112E-1,1.19873844E-1,-1.9990319E-1,1.9328035E-1,-1.8918918E-1,1.9015831E-1,-1.9215687E-1,-1.9772728E-1,1.909356E-1],"split_indices":[70,71,12,71,70,0,8,70,70,70,70,70,6,1,0,1,70,6,11,9,0,71,67,0,9,0,2,70,70,70,2,0,5,67,12,0,5,70,8,70,5,14,0,71,0,0,0,0,0,0,0,0,0,0,0,0,0,0,0,0,0,0,0,0,0,0,0,0,0,0,0,0,0,0,0,0,0,0,0,0,0],"split_type":[0,0,0,0,0,0,0,0,0,0,0,0,0,0,0,0,0,0,0,0,0,0,0,0,0,0,0,0,0,0,0,0,0,0,0,0,0,0,0,0,0,0,0,0,0,0,0,0,0,0,0,0,0,0,0,0,0,0,0,0,0,0,0,0,0,0,0,0,0,0,0,0,0,0,0,0,0,0,0,0,0],"sum_hessian":[3.33017E5,2.0295681E5,1.300602E5,1.5867253E5,4.4284273E4,6.9175E2,1.2936845E5,2.7553258E4,1.3111928E5,2.6438371E4,1.7845902E4,1.6059435E3,1.2776251E5,1.4869266E4,1.2683992E4,5.225946E4,7.885981E4,4.609258E3,2.1829113E4,1.2425678E4,5.4202256E3,5.8314514E2,1.0227984E3,1.11E2,1.2765151E5,8.506451E3,6.3628145E3,7.7384674E2,1.19101455E4,1.5724758E3,5.0686984E4,7.8187234E4,6.725806E2,5.914516E2,4.0178064E3,5.9625E2,2.1232863E4,1.9467339E3,1.0478943E4,1.9447015E3,3.4755242E3,6.114516E1,5.22E2,9.582984E2,6.45E1,8.875E1,1.2756276E5,1.9208468E3,4.441968E3,2.0275E2,5.7109674E2,1.178925E4,1.2089516E2,1.3913951E3,1.8108064E2,9.406774E2,4.9746305E4,6.4703467E3,7.171689E4,1.6543549E2,5.0714517E2,5.297016E2,6.175E1,7.325161E2,3.2852903E3,5.89E2,2.0643863E4,1.4807339E3,4.66E2,8.693871E2,9.609557E3,1.8809515E3,6.375E1,1.4105242E3,2.065E3,4.364516E1,1.75E1,9.337984E2,2.45E1,8.7E1,1.2747576E5],"tree_param":{"num_deleted":"0","num_feature":"75","num_nodes":"81","size_leaf_vector":"1"}},{"base_weights":[-1.1473428E-2,-1.0894718E0,1.689115E0,-1.4099746E0,4.7134526E-2,-1.8163046E-1,1.707964E0,-3.360492E-1,-1.6299167E0,6.047548E-1,-8.065819E-1,3.7715375E-1,1.725346E0,8.5810244E-1,-1.7305152E0,-1.435682E0,-1.759391E0,-1.3588527E0,9.840859E-1,-1.3030679E0,1.3605383E-1,-1.5475346E0,1.4360327E0,-1.8038203E-1,1.7284652E0,1.817841E-1,-4.3305284E-1,-1.8185471E-1,-1.5392467E0,1.7937236E-1,-1.5351439E0,-1.4266638E0,-1.7730062E0,6.910381E-1,-1.6245804E0,-1.816821E-1,1.063938E0,7.598066E-1,-1.4968877E0,-1.817614E-1,3.6888418E-1,6.2226236E-1,-1.8158655E-1,1.6761343E0,-1.8213661E-1,-2.1842957E-1,1.7311009E0,1.5938923E-1,-1.1781001E-1,-5.2214026E-2,-1.6472071E-1,-1.6677919E-1,-7.3501386E-2,-1.8205735E-1,-8.702587E-2,-1.8086943E-1,-1.6310437E-1,-1.992672E-1,9.1230646E-2,-6.313918E-2,-1.8269032E-1,-2.1288109E-1,1.13812886E-1,1.3929854E-1,-2.0499413E-1,-5.7439464E-3,-1.77274E-1,-1.8149556E-1,5.114907E-2,1.7164114E-1,-1.732627E-1,1.7334612E-1,7.6488994E-2,-1.7992447E-1,1.7334987E-1],"categories":[],"categories_nodes":[],"categories_segments":[],"categories_sizes":[],"default_left":[0,0,0,0,0,0,0,0,0,0,0,0,0,0,0,0,0,0,0,0,0,0,1,0,0,0,0,0,0,0,0,0,0,0,0,0,0,0,0,0,0,0,0,0,0,0,0,0,0,0,0,0,0,0,0,0,0,0,0,0,0,0,0,0,0,0,0,0,0,0,0,0,0,0,0],"id":1,"left_children":[1,3,5,7,9,-1,11,13,15,17,19,21,23,25,27,29,31,33,35,37,39,41,43,-1,45,-1,47,-1,49,-1,51,53,55,57,59,-1,61,63,65,-1,67,69,-1,71,-1,-1,73,-1,-1,-1,-1,-1,-1,-1,-1,-1,-1,-1,-1,-1,-1,-1,-1,-1,-1,-1,-1,-1,-1,-1,-1,-1,-1,-1,-1],"loss_changes":[6.031589E5,7.335539E4,8.437125E3,3.7100844E4,2.1086334E4,0E0,2.9363125E3,4.4466074E4,3.2761562E3,1.9958748E4,8.1906377E3,3.3409082E3,1.38275E3,1.782615E4,2.0461328E2,1.6753875E4,3.5184375E2,2.36431E3,5.0244473E3,4.5844355E3,2.7474402E3,3.3991846E2,8.2999023E2,0E0,1.2951875E3,0E0,9.265652E3,0E0,4.2618848E2,0E0,5.3685703E3,6.7352E2,3.7776562E2,2.978691E2,7.706465E2,0E0,5.1743906E3,1.755601E3,4.1608613E3,0E0,1.6815139E3,1.6989899E2,0E0,5.014258E1,0E0,0E0,1.0623438E3,0E0,0E0,0E0,0E0,0E0,0E0,0E0,0E0,0E0,0E0,0E0,0E0,0E0,0E0,0E0,0E0,0E0,0E0,0E0,0E0,0E0,0E0,0E0,0E0,0E0,0E0,0E0,0E0],"parents":[2147483647,0,0,1,1,2,2,3,3,4,4,6,6,7,7,8,8,9,9,10,10,11,11,12,12,13,13,14,14,15,15,16,16,17,17,18,18,19,19,20,20,21,21,22,22,24,24,26,26,28,28,30,30,31,31,32,32,33,33,34,34,36,36,37,37,38,38,40,40,41,41,43,43,46,46],"right_children":[2,4,6,8,10,-1,12,14,16,18,20,22,24,26,28,30,32,34,36,38,40,42,44,-1,46,-1,48,-1,50,-1,52,54,56,58,60,-1,62,64,66,-1,68,70,-1,72,-1,-1,74,-1,-1,-1,-1,-1,-1,-1,-1,-1,-1,-1,-1,-1,-1,-1,-1,-1,-1,-1,-1,-1,-1,-1,-1,-1,-1,-1,-1],"split_conditions":[5.489805E0,2.2E1,2.00001E0,4E0,3.3196256E0,-1.8163046E-1,2.00001E0,3.2192757E0,3.2449334E0,1.9851309E0,4.654341E0,6.4595914E0,2.00001E0,2.00001E0,4.572647E0,2.00001E0,2.00001E0,2.00001E0,2.00001E0,2.00001E0,2.00001E0,2.00001E0,9E0,-1.8038203E-1,2.00001E0,1.817841E-1,2.00001E0,-1.8185471E-1,2.00001E0,1.7937236E-1,2.9580305E0,1.2E1,4.706914E0,1.2089603E0,2.00001E0,-1.816821E-1,2.00001E0,4.600001E1,2.00001E0,-1.817614E-1,2.00001E0,2E0,-1.8158655E-1,6.8287444E0,-1.8213661E-1,-2.1842957E-1,2.00001E0,1.5938923E-1,-1.1781001E-1,-5.2214026E-2,-1.6472071E-1,-1.6677919E-1,-7.3501386E-2,-1.8205735E-1,-8.702587E-2,-1.8086943E-1,-1.6310437E-1,-1.992672E-1,9.1230646E-2,-6.313918E-2,-1.8269032E-1,-2.1288109E-1,1.13812886E-1,1.3929854E-1,-2.0499413E-1,-5.7439464E-3,-1.77274E-1,-1.8149556E-1,5.114907E-2,1.7164114E-1,-1.732627E-1,1.7334612E-1,7.6488994E-2,-1.7992447E-1,1.7334987E-1],"split_indices":[70,71,12,71,70,0,8,70,70,70,70,70,6,1,70,1,8,6,5,8,3,14,71,0,4,0,2,0,47,0,70,71,70,70,12,0,10,71,9,0,6,71,0,70,0,0,9,0,0,0,0,0,0,0,0,0,0,0,0,0,0,0,0,0,0,0,0,0,0,0,0,0,0,0,0],"split_type":[0,0,0,0,0,0,0,0,0,0,0,0,0,0,0,0,0,0,0,0,0,0,0,0,0,0,0,0,0,0,0,0,0,0,0,0,0,0,0,0,0,0,0,0,0,0,0,0,0,0,0,0,0,0,0,0,0,0,0,0,0,0,0,0,0,0,0,0,0,0,0,0,0,0,0],"sum_hessian":[3.29012E5,2.0136662E5,1.2764539E5,1.5707425E5,4.429238E4,6.821753E2,1.2696321E5,2.670119E4,1.30373055E5,2.67926E4,1.7499777E4,1.6372074E3,1.2532601E5,1.4383908E4,1.2317281E4,5.2150297E4,7.822276E4,4.3374106E3,2.245519E4,1.1462237E4,6.03754E3,5.808871E2,1.0563203E3,1.101644E2,1.2521584E5,8.250648E3,6.1332603E3,8.42921E3,3.8880715E3,1.557667E3,5.059263E4,3.079229E3,7.514353E4,4.9755365E2,3.839857E3,6.2183545E2,2.1833354E4,9.842016E2,1.0478036E4,6.4218567E2,5.3953545E3,6.3785034E1,5.1710205E2,9.8425653E2,7.2063736E1,8.373451E1,1.2513211E5,1.6481719E3,4.4850884E3,3.736561E2,3.5144153E3,4.3397047E4,7.195582E3,1.8015444E3,1.2776844E3,6.003866E4,1.5104869E4,3.7288223E1,4.6026544E2,6.505369E2,3.18932E3,4.9519766E2,2.1338156E4,8.0361145E2,1.8059018E2,1.6852579E3,8.792778E3,3.3000565E2,5.0653486E3,4.3735428E1,2.0049604E1,9.2515234E2,5.910417E1,8.442179E1,1.2504769E5],"tree_param":{"num_deleted":"0","num_feature":"75","num_nodes":"75","size_leaf_vector":"1"}},{"base_weights":[1.9729265E-3,-9.903561E-1,1.5608712E0,-1.2772299E0,3.402392E-2,-1.6804066E-1,1.5780008E0,-2.2340298E-1,-1.5025631E0,5.5512303E-1,-7.293011E-1,3.151763E-1,1.5939394E0,8.5351515E-1,-1.5711364E0,-1.3226123E0,-1.6227802E0,-8.1085336E-1,1.0003852E0,7.0766205E-1,-1.0879248E0,-1.681369E-1,1.3396077E0,1.4793515E0,1.6723661E0,-1.7064625E0,1.247838E0,2.991085E-1,-1.674086E0,1.6545187E0,-1.4087566E0,-1.3292804E0,-1.6498141E0,-1.14728E0,-5.4023053E-2,-2.2671719E-1,1.062393E0,-1.7014249E-1,1.5229665E0,-1.2882895E0,1.0078117E0,1.5381429E0,-1.7368612E-1,1.6542835E0,1.2286044E0,-1.8484214E-1,1.6730859E0,1.6434233E-1,-1.7780817E-1,1.6819268E-1,3.802317E-2,-1.67453E-1,1.16152816E-1,-1.6876404E-1,-3.682407E-2,1.6826427E-1,1.5227924E-1,-1.5432516E-1,-6.8535835E-2,-1.7033856E-1,-3.3498134E-2,-1.6562925E-1,-8.912734E-2,-6.820271E-2,-1.637167E-1,1.22494414E-1,-6.8710335E-2,-1.9127844E-1,1.1241307E-1,1.6078691E-1,-1.8357508E-1,-6.996699E-2,-1.6711394E-1,1.2866776E-1,-1.7068376E-1,1.6152601E-1,-1.6165482E-1,1.6913159E-1,1.580161E-1,7.212131E-2,1.5323986E-1,-1.8293731E-1,1.6737185E-1],"categories":[],"categories_nodes":[],"categories_segments":[],"categories_sizes":[],"default_left":[0,0,0,0,0,0,0,0,0,0,0,0,0,0,0,0,0,0,0,0,0,0,0,0,0,0,0,0,0,0,0,0,0,0,0,0,0,0,0,0,0,1,0,0,0,0,0,0,0,0,0,0,0,0,0,0,0,0,0,0,0,0,0,0,0,0,0,0,0,0,0,0,0,0,0,0,0,0,0,0,0,0,0],"id":2,"left_children":[1,3,5,7,9,-1,11,13,15,17,19,21,23,25,27,29,31,33,35,37,39,-1,41,43,45,47,49,51,53,55,57,59,61,63,65,-1,67,-1,69,71,73,75,-1,77,79,-1,81,-1,-1,-1,-1,-1,-1,-1,-1,-1,-1,-1,-1,-1,-1,-1,-1,-1,-1,-1,-1,-1,-1,-1,-1,-1,-1,-1,-1,-1,-1,-1,-1,-1,-1,-1,-1],"loss_changes":[5.013155E5,5.819139E4,7.0011562E3,3.673425E4,1.7232975E4,0E0,2.5233125E3,3.9554973E4,2.7549062E3,1.5660742E4,9.05867E3,3.2013413E3,1.1102812E3,1.5294017E4,2.3311016E3,1.3094078E4,6.04E2,1.611689E3,3.9368008E3,6.898994E3,5.9080957E3,0E0,6.343844E2,2.2052812E3,1.8935938E2,4.881206E2,4.9433203E3,1.0783345E3,2.0245703E2,2.7575684E0,4.825883E3,2.398164E3,3.4228125E2,9.9765234E2,1.5789222E3,0E0,3.5025996E3,0E0,7.5118555E2,2.892295E3,9.318729E2,2.3910254E2,0E0,7.86875E1,3.1871172E3,0E0,1.6585938E2,0E0,0E0,0E0,0E0,0E0,0E0,0E0,0E0,0E0,0E0,0E0,0E0,0E0,0E0,0E0,0E0,0E0,0E0,0E0,0E0,0E0,0E0,0E0,0E0,0E0,0E0,0E0,0E0,0E0,0E0,0E0,0E0,0E0,0E0,0E0,0E0],"parents":[2147483647,0,0,1,1,2,2,3,3,4,4,6,6,7,7,8,8,9,9,10,10,11,11,12,12,13,13,14,14,15,15,16,16,17,17,18,18,19,19,20,20,22,22,23,23,24,24,25,25,26,26,27,27,28,28,29,29,30,30,31,31,32,32,33,33,34,34,36,36,38,38,39,39,40,40,41,41,43,43,44,44,46,46],"right_children":[2,4,6,8,10,-1,12,14,16,18,20,22,24,26,28,30,32,34,36,38,40,-1,42,44,46,48,50,52,54,56,58,60,62,64,66,-1,68,-1,70,72,74,76,-1,78,80,-1,82,-1,-1,-1,-1,-1,-1,-1,-1,-1,-1,-1,-1,-1,-1,-1,-1,-1,-1,-1,-1,-1,-1,-1,-1,-1,-1,-1,-1,-1,-1,-1,-1,-1,-1,-1,-1],"split_conditions":[5.489805E0,2.2E1,2.00001E0,4E0,3.2718477E0,-1.6804066E-1,2.00001E0,3.2192757E0,3.2449334E0,2.1656191E0,2.00001E0,6.4595914E0,2.2E1,1.9657128E0,2.00001E0,2.00001E0,2.00001E0,1.9851309E0,2.00001E0,4.572647E0,5.310048E0,-1.681369E-1,2.501E3,4E0,2.00001E0,2.00001E0,2.00001E0,4.572647E0,5.4272823E0,2.9580305E0,2.925846E0,4.5833335E0,5.4272823E0,2.208E3,2.00001E0,-2.2671719E-1,2.00001E0,-1.7014249E-1,5.020652E0,3.9821086E0,4.600001E1,1.1E1,-1.7368612E-1,2.00001E0,6.4595914E0,-1.8484214E-1,2.00001E0,1.6434233E-1,-1.7780817E-1,1.6819268E-1,3.802317E-2,-1.67453E-1,1.16152816E-1,-1.6876404E-1,-3.682407E-2,1.6826427E-1,1.5227924E-1,-1.5432516E-1,-6.8535835E-2,-1.7033856E-1,-3.3498134E-2,-1.6562925E-1,-8.912734E-2,-6.820271E-2,-1.637167E-1,1.22494414E-1,-6.8710335E-2,-1.9127844E-1,1.1241307E-1,1.6078691E-1,-1.8357508E-1,-6.996699E-2,-1.6711394E-1,1.2866776E-1,-1.7068376E-1,1.6152601E-1,-1.6165482E-1,1.6913159E-1,1.580161E-1,7.212131E-2,1.5323986E-1,-1.8293731E-1,1.6737185E-1],"split_indices":[70,71,12,71,70,0,8,70,70,70,0,70,71,70,0,1,0,70,0,70,70,0,67,71,0,1,1,70,70,70,70,70,70,67,8,0,11,0,70,70,71,71,0,3,70,0,4,0,0,0,0,0,0,0,0,0,0,0,0,0,0,0,0,0,0,0,0,0,0,0,0,0,0,0,0,0,0,0,0,0,0,0,0],"split_type":[0,0,0,0,0,0,0,0,0,0,0,0,0,0,0,0,0,0,0,0,0,0,0,0,0,0,0,0,0,0,0,0,0,0,0,0,0,0,0,0,0,0,0,0,0,0,0,0,0,0,0,0,0,0,0,0,0,0,0,0,0,0,0,0,0,0,0,0,0,0,0,0,0,0,0,0,0,0,0,0,0,0,0],"sum_hessian":[3.2406716E5,1.9801775E5,1.2604939E5,1.5469558E5,4.332217E4,6.621347E2,1.2538726E5,2.725108E4,1.274445E5,2.5746252E4,1.757592E4,1.5630991E3,1.2382416E5,1.5147614E4,1.2103466E4,5.1046266E4,7.6398234E4,6.329076E3,1.9417176E4,3.5101577E3,1.4065763E4,5.2983887E2,1.0332601E3,5.032096E4,7.3503195E4,2.0213716E3,1.3126242E4,6.3138745E2,1.1472079E4,1.434993E3,4.961127E4,6.4476885E3,6.995055E4,4.3810796E3,1.9479961E3,3.609513E2,1.9056225E4,8.8728723E2,2.6228706E3,1.2838693E4,1.2270693E3,9.710923E2,6.2167908E1,2.9638365E4,2.0682596E4,1.4497846E1,7.3488695E4,4.1852043E1,1.9795195E3,8.748282E3,4.37796E3,1.9171286E2,4.396746E2,1.1353934E4,1.1814487E2,1.1728193E3,2.6217374E2,4.183258E4,7.778692E3,4.6844507E3,1.763238E3,6.935701E4,5.935361E2,2.2482632E3,2.1328167E3,6.4467334E2,1.3033228E3,3.8678687E2,1.8669438E4,2.558712E3,6.415861E1,5.0607593E3,7.777934E3,1.1132367E3,1.1383266E2,9.483965E2,2.2695784E1,1.974949E4,9.888875E3,7.7470283E3,1.2935568E4,1.2747591E1,7.347595E4],"tree_param":{"num_deleted":"0","num_feature":"75","num_nodes":"83","size_leaf_vector":"1"}},{"base_weights":[-4.312621E-3,-9.190462E-1,1.4563909E0,-1.201826E0,5.536299E-2,-1.57485E-1,1.4726241E0,-2.4025196E-1,-1.4052104E0,5.333205E-1,-6.556894E-1,2.6828986E-1,1.487453E0,7.600964E-1,-1.445555E0,-1.2321749E0,-1.5216615E0,-6.948598E-1,9.076485E-1,-1.1053805E0,1.9265263E-1,-1.3065877E0,1.2022464E0,-1.7306988E-1,1.4903573E0,-1.5846534E0,1.1343825E0,4.3484673E-1,-1.567569E0,-1.5817068E0,-9.453427E-1,-1.2585856E0,-1.5460601E0,9.8436815E-1,-9.642727E-1,-1.7586124E-1,9.8332566E-1,1.06058545E-1,-1.332202E0,1.3795704E0,-5.097638E-1,8.464467E-1,-1.5742993E-1,1.4499134E0,-1.6237903E-1,-1.9884215E-1,1.4929804E0,1.3981625E-2,-1.651079E-1,-1.803828E-1,1.2447893E-1,-1.5696993E-1,1.1614897E-1,-1.5808216E-1,-3.0630082E-2,-1.464037E-1,-1.5958734E-1,-3.9264742E-2,-1.1132393E-1,-1.5931755E-1,-3.764173E-2,-1.552461E-1,-8.1590414E-2,1.2515531E-1,-1.806315E-1,2.1146229E-2,-1.2368689E-1,-2.0161645E-1,1.0444315E-1,6.749111E-2,-1.8634649E-1,4.8278373E-2,-1.5027167E-1,1.4710367E-1,-1.6930464E-1,1.04134336E-1,-1.6840337E-1,1.7354418E-1,-1.4905928E-1,-2.0211051E-1,1.5078375E-1,-1.9810943E-1,1.495492E-1],"categories":[],"categories_nodes":[],"categories_segments":[],"categories_sizes":[],"default_left":[0,0,0,0,0,0,0,0,0,0,0,0,0,0,0,0,0,0,0,0,0,0,1,0,0,0,0,0,0,0,0,0,0,0,0,0,0,0,0,0,0,0,0,0,0,0,0,0,0,0,0,0,0,0,0,0,0,0,0,0,0,0,0,0,0,0,0,0,0,0,0,0,0,0,0,0,0,0,0,0,0,0,0],"id":3,"left_children":[1,3,5,7,9,-1,11,13,15,17,19,21,23,25,27,29,31,33,35,37,39,41,43,-1,45,47,49,51,53,55,57,59,61,63,65,-1,67,69,71,73,75,77,-1,79,-1,-1,81,-1,-1,-1,-1,-1,-1,-1,-1,-1,-1,-1,-1,-1,-1,-1,-1,-1,-1,-1,-1,-1,-1,-1,-1,-1,-1,-1,-1,-1,-1,-1,-1,-1,-1,-1,-1],"loss_changes":[4.179718E5,5.3002844E4,5.92975E3,2.9157125E4,1.470508E4,0E0,2.1393906E3,3.138627E4,2.4778594E3,1.1896768E4,6.6356035E3,2.146963E3,1.108875E3,1.248588E4,2.7094082E3,4.9621094E3,4.7015625E2,2.7356653E3,4.0032988E3,3.1237588E3,5.025128E3,3.1458118E2,6.435653E2,0E0,1.0820625E3,2.2458252E2,3.9818281E3,1.0508081E3,1.8483008E2,3.486328E1,2.5232266E3,1.8435938E3,3.1329688E2,6.257806E2,1.6699419E3,0E0,3.5368008E3,2.0108302E3,2.9640156E3,6.3225635E2,6.8990107E3,1.2880696E2,0E0,1.7250403E2,0E0,0E0,1.0340312E3,0E0,0E0,0E0,0E0,0E0,0E0,0E0,0E0,0E0,0E0,0E0,0E0,0E0,0E0,0E0,0E0,0E0,0E0,0E0,0E0,0E0,0E0,0E0,0E0,0E0,0E0,0E0,0E0,0E0,0E0,0E0,0E0,0E0,0E0,0E0,0E0],"parents":[2147483647,0,0,1,1,2,2,3,3,4,4,6,6,7,7,8,8,9,9,10,10,11,11,12,12,13,13,14,14,15,15,16,16,17,17,18,18,19,19,20,20,21,21,22,22,24,24,25,25,26,26,27,27,28,28,29,29,30,30,31,31,32,32,33,33,34,34,36,36,37,37,38,38,39,39,40,40,41,41,43,43,46,46],"right_children":[2,4,6,8,10,-1,12,14,16,18,20,22,24,26,28,30,32,34,36,38,40,42,44,-1,46,48,50,52,54,56,58,60,62,64,66,-1,68,70,72,74,76,78,-1,80,-1,-1,82,-1,-1,-1,-1,-1,-1,-1,-1,-1,-1,-1,-1,-1,-1,-1,-1,-1,-1,-1,-1,-1,-1,-1,-1,-1,-1,-1,-1,-1,-1,-1,-1,-1,-1,-1,-1],"split_conditions":[5.489805E0,2.2E1,2.00001E0,4E0,3.2718477E0,-1.57485E-1,2.00001E0,3.2192757E0,3.2449334E0,2.1317968E0,4.6666417E0,6.4595914E0,2.00001E0,1.9657128E0,2.00001E0,2.0794415E0,2.00001E0,2.00001E0,2.00001E0,2.00001E0,2.00001E0,2.00001E0,8E0,-1.7306988E-1,2.00001E0,2.00001E0,2.00001E0,4.572647E0,5.4272823E0,2.00001E0,1.2E1,4.5833335E0,5.4272823E0,1.923E3,2.00001E0,-1.7586124E-1,2.00001E0,2.501E3,2.00001E0,5.020652E0,2.00001E0,2E0,-1.5742993E-1,2.00001E0,-1.6237903E-1,-1.9884215E-1,2.00001E0,1.3981625E-2,-1.651079E-1,-1.803828E-1,1.2447893E-1,-1.5696993E-1,1.1614897E-1,-1.5808216E-1,-3.0630082E-2,-1.464037E-1,-1.5958734E-1,-3.9264742E-2,-1.1132393E-1,-1.5931755E-1,-3.764173E-2,-1.552461E-1,-8.1590414E-2,1.2515531E-1,-1.806315E-1,2.1146229E-2,-1.2368689E-1,-2.0161645E-1,1.0444315E-1,6.749111E-2,-1.8634649E-1,4.8278373E-2,-1.5027167E-1,1.4710367E-1,-1.6930464E-1,1.04134336E-1,-1.6840337E-1,1.7354418E-1,-1.4905928E-1,-2.0211051E-1,1.5078375E-1,-1.9810943E-1,1.495492E-1],"split_indices":[70,71,12,71,70,0,8,70,70,70,70,70,6,70,0,70,0,6,5,9,0,14,71,0,0,29,7,70,70,12,71,70,70,67,8,0,0,67,8,70,5,71,0,13,0,0,4,0,0,0,0,0,0,0,0,0,0,0,0,0,0,0,0,0,0,0,0,0,0,0,0,0,0,0,0,0,0,0,0,0,0,0,0],"split_type":[0,0,0,0,0,0,0,0,0,0,0,0,0,0,0,0,0,0,0,0,0,0,0,0,0,0,0,0,0,0,0,0,0,0,0,0,0,0,0,0,0,0,0,0,0,0,0,0,0,0,0,0,0,0,0,0,0,0,0,0,0,0,0,0,0,0,0,0,0,0,0,0,0,0,0,0,0,0,0,0,0,0,0],"sum_hessian":[3.1281497E5,1.9235638E5,1.2045859E5,1.4908944E5,4.3266934E4,6.4114325E2,1.1981745E5,2.6029174E4,1.23060266E5,2.5874666E4,1.7392268E4,1.45759E3,1.1835987E5,1.4224137E4,1.1805037E4,4.950787E4,7.355239E4,6.0438325E3,1.9830834E4,1.1366686E4,6.025582E3,5.4246436E2,9.151256E2,1.0618435E2,1.1825368E5,1.9575638E3,1.2266573E4,7.191653E2,1.1085871E4,2.2312943E4,2.7194928E4,6.247012E3,6.730538E4,8.3523413E2,5.208598E3,5.467147E2,1.928412E4,1.7926714E3,9.574014E3,2.2398318E3,3.7857505E3,5.9752354E1,4.8271198E2,8.4183606E2,7.3289536E1,8.85284E1,1.1816515E5,7.256658E1,1.8849972E3,4.4368307E2,1.182289E4,1.9102792E2,5.281374E2,1.097035E4,1.1552139E2,2.4088696E3,1.9904074E4,6.3371455E3,2.0857783E4,4.528594E3,1.7184177E3,6.671937E4,5.8601117E2,7.627579E2,7.247624E1,9.803733E2,4.228225E3,3.8437485E2,1.8899744E4,1.391442E3,4.0122934E2,8.2205853E2,8.751955E3,2.1755896E3,6.424222E1,1.6311967E3,2.1545537E3,4.347294E1,1.6279413E1,1.3261565E1,8.285745E2,8.480032E1,1.1808035E5],"tree_param":{"num_deleted":"0","num_feature":"75","num_nodes":"83","size_leaf_vector":"1"}},{"base_weights":[-5.4494548E-3,-5.447188E-1,9.273735E-1,6.539719E-1,-1.0014257E0,1.3239104E0,7.933101E-1,1.0323012E0,3.7857994E-1,-4.5319304E-1,-1.0647612E0,1.3656867E0,4.7336677E-1,1.2355666E0,7.0958114E-1,-1.4530315E-1,1.0354712E0,8.9537896E-2,5.581438E-1,-6.076735E-1,1.133259E0,-4.79955E-1,-1.1362869E0,1.4457452E0,1.1908896E0,-1.713386E-1,9.720863E-1,1.4823425E0,1.0673327E0,1.0577475E0,6.263823E-1,1.0963753E0,9.5088893E-1,2.3053141E-2,1.093999E0,-1.4262982E-1,6.2545097E-1,3.405334E-2,-6.491339E-1,-1.4484113E-1,1.1940709E0,-1.2139592E0,-1.3549352E-1,-1.3827548E0,-1.1049738E0,1.4930041E0,1.4036416E0,-1.730599E-1,1.19894E0,1.0548078E0,-1.058118E-1,-9.8854445E-2,1.483373E0,-1.4691934E-1,1.077433E0,1.1315778E0,3.5444966E-1,2.7449024E-1,6.692481E-1,-1.416791E-1,1.0997909E-1,-1.4852594E-1,9.592011E-2,5.9222378E-2,-5.625619E-3,-1.6246836E-1,1.18098274E-1,2.4748534E-2,-6.4413026E-2,4.1134898E-2,7.714263E-2,6.748717E-2,-5.953681E-2,-4.9954332E-2,-9.086161E-2,1.2341483E-1,-1.4192551E-1,2.1849344E-2,-1.2834816E-1,4.05424E-2,-5.7332672E-2,-1.43979E-1,-9.173237E-2,-1.1777204E-1,-9.9341266E-2,1.3177694E-1,1.4945419E-1,-1.6347693E-1,1.4069329E-1,1.2067454E-1,-1.6619723E-1,1.1152579E-1,-1.7133293E-1,1.4680964E-1,-1.7514889E-1,1.2334805E-1,1.4851373E-1,-1.3476613E-1,1.07981734E-1,1.2977117E-1,9.2952184E-2,-1.67399E-1,8.677799E-2,-1.07421495E-1,6.716325E-2,2.0040104E-2,7.1028695E-2],"categories":[],"categories_nodes":[],"categories_segments":[],"categories_sizes":[],"default_left":[0,0,0,0,0,0,0,0,0,0,0,0,0,0,0,0,0,0,0,0,0,0,0,0,0,0,1,0,0,0,0,0,0,0,0,0,0,0,0,0,0,0,0,0,0,0,0,0,0,0,0,0,0,0,0,0,0,0,0,0,0,0,0,0,0,0,0,0,0,0,0,0,0,0,0,0,0,0,0,0,0,0,0,0,0,0,0,0,0,0,0,0,0,0,0,0,0,0,0,0,0,0,0,0,0,0,0],"id":4,"left_children":[1,3,5,7,9,11,13,15,17,19,21,23,25,27,29,-1,31,33,35,37,39,41,43,45,47,-1,49,51,53,55,57,59,61,63,65,67,69,71,73,-1,75,77,79,81,83,85,87,-1,89,91,93,-1,95,-1,97,99,101,103,105,-1,-1,-1,-1,-1,-1,-1,-1,-1,-1,-1,-1,-1,-1,-1,-1,-1,-1,-1,-1,-1,-1,-1,-1,-1,-1,-1,-1,-1,-1,-1,-1,-1,-1,-1,-1,-1,-1,-1,-1,-1,-1,-1,-1,-1,-1,-1,-1],"loss_changes":[1.512481E5,1.0430297E5,5.85425E3,5.476205E3,4.7898594E3,9.881406E2,3.0472656E3,1.7596094E2,1.5789033E3,3.5026392E3,5.1725E3,3.6946094E2,1.4241597E3,5.423672E2,2.0042891E3,0E0,1.12884766E2,7.78549E2,8.851587E2,3.464878E2,2.0084692E2,3.407889E3,8.4890625E2,3.409375E1,1.981748E2,0E0,9.48728E1,1.4982422E1,2.0127246E2,6.927051E2,8.4253516E2,1.1186719E2,1.8904883E2,4.936818E2,1.7307104E2,3.2202307E2,5.3475635E2,3.1953238E2,4.7433496E2,0E0,1.3158728E2,4.2901904E2,2.1731956E3,3.283203E2,7.923594E2,3.359375E-1,9.86582E1,0E0,1.8769336E2,1.6708667E2,2.0111993E2,0E0,5.0878906E-1,0E0,4.6348633E1,4.042871E2,1.3234333E3,3.2510405E3,9.580625E2,0E0,0E0,0E0,0E0,0E0,0E0,0E0,0E0,0E0,0E0,0E0,0E0,0E0,0E0,0E0,0E0,0E0,0E0,0E0,0E0,0E0,0E0,0E0,0E0,0E0,0E0,0E0,0E0,0E0,0E0,0E0,0E0,0E0,0E0,0E0,0E0,0E0,0E0,0E0,0E0,0E0,0E0,0E0,0E0,0E0,0E0,0E0,0E0],"parents":[2147483647,0,0,1,1,2,2,3,3,4,4,5,5,6,6,7,7,8,8,9,9,10,10,11,11,12,12,13,13,14,14,16,16,17,17,18,18,19,19,20,20,21,21,22,22,23,23,24,24,26,26,27,27,28,28,29,29,30,30,31,31,32,32,33,33,34,34,35,35,36,36,37,37,38,38,40,40,41,41,42,42,43,43,44,44,45,45,46,46,48,48,49,49,50,50,52,52,54,54,55,55,56,56,57,57,58,58],"right_children":[2,4,6,8,10,12,14,16,18,20,22,24,26,28,30,-1,32,34,36,38,40,42,44,46,48,-1,50,52,54,56,58,60,62,64,66,68,70,72,74,-1,76,78,80,82,84,86,88,-1,90,92,94,-1,96,-1,98,100,102,104,106,-1,-1,-1,-1,-1,-1,-1,-1,-1,-1,-1,-1,-1,-1,-1,-1,-1,-1,-1,-1,-1,-1,-1,-1,-1,-1,-1,-1,-1,-1,-1,-1,-1,-1,-1,-1,-1,-1,-1,-1,-1,-1,-1,-1,-1,-1,-1,-1],"split_conditions":[2.2E1,4E0,2.00001E0,2.00001E0,2.00001E0,4.600001E1,2.00001E0,9.748105E0,1.93E3,1.2E1,2.00001E0,2.00001E0,2.00001E0,4.600001E1,2.00001E0,-1.4530315E-1,5E0,9.8233E4,2.00001E0,2.96047E1,1.291E4,1.3E1,2.00001E0,2.691E3,2.00001E0,-1.713386E-1,6E0,2.00001E0,2.00001E0,4.600001E1,2.00001E0,2.00001E0,2.00001E0,1.11E2,4.70999E1,2.00001E0,2.00001E0,-8.321036E1,5.7426E4,-1.4484113E-1,7.17255E5,2.00001E0,2.00001E0,1.200001E1,-8.356533E1,2.00001E0,2.916E3,-1.730599E-1,4.7593185E1,-7.6905334E1,2.00001E0,-9.8854445E-2,2.00001E0,-1.4691934E-1,2.00001E0,2.00001E0,2.00001E0,2.00001E0,2.00001E0,-1.416791E-1,1.0997909E-1,-1.4852594E-1,9.592011E-2,5.9222378E-2,-5.625619E-3,-1.6246836E-1,1.18098274E-1,2.4748534E-2,-6.4413026E-2,4.1134898E-2,7.714263E-2,6.748717E-2,-5.953681E-2,-4.9954332E-2,-9.086161E-2,1.2341483E-1,-1.4192551E-1,2.1849344E-2,-1.2834816E-1,4.05424E-2,-5.7332672E-2,-1.43979E-1,-9.173237E-2,-1.1777204E-1,-9.9341266E-2,1.3177694E-1,1.4945419E-1,-1.6347693E-1,1.4069329E-1,1.2067454E-1,-1.6619723E-1,1.1152579E-1,-1.7133293E-1,1.4680964E-1,-1.7514889E-1,1.2334805E-1,1.4851373E-1,-1.3476613E-1,1.07981734E-1,1.2977117E-1,9.2952184E-2,-1.67399E-1,8.677799E-2,-1.07421495E-1,6.716325E-2,2.0040104E-2,7.1028695E-2],"split_indices":[71,71,10,3,3,71,3,74,67,71,10,13,13,71,11,0,72,64,2,65,64,71,5,67,35,0,72,59,61,71,5,59,62,67,65,13,13,69,64,0,67,25,13,72,69,60,67,0,68,69,59,0,38,0,16,13,13,13,4,0,0,0,0,0,0,0,0,0,0,0,0,0,0,0,0,0,0,0,0,0,0,0,0,0,0,0,0,0,0,0,0,0,0,0,0,0,0,0,0,0,0,0,0,0,0,0,0],"split_type":[0,0,0,0,0,0,0,0,0,0,0,0,0,0,0,0,0,0,0,0,0,0,0,0,0,0,0,0,0,0,0,0,0,0,0,0,0,0,0,0,0,0,0,0,0,0,0,0,0,0,0,0,0,0,0,0,0,0,0,0,0,0,0,0,0,0,0,0,0,0,0,0,0,0,0,0,0,0,0,0,0,0,0,0,0,0,0,0,0,0,0,0,0,0,0,0,0,0,0,0,0,0,0,0,0,0,0],"sum_hessian":[3.0066444E5,1.9052275E5,1.1014168E5,5.2563125E4,1.3795962E5,2.7826559E4,8.2315125E4,2.2142018E4,3.0421105E4,1.4288249E4,1.2367138E5,2.6523207E4,1.303351E3,1.3101137E4,6.9213984E4,2.7623997E1,2.2114395E4,1.1657558E4,1.8763549E4,1.3020953E4,1.2672959E3,1.3478293E4,1.10193086E5,1.81864E4,8.336806E3,2.4159323E2,1.0617578E3,5.3076836E3,7.793453E3,1.334728E4,5.5866707E4,1.2849824E4,9.26457E3,1.0934811E4,7.2274646E2,1.6441589E3,1.711939E4,7.902103E2,1.2230742E4,2.8639378E1,1.2386566E3,4.3041543E3,9.174138E3,1.2416737E4,9.777635E4,8.552401E3,9.634E3,2.2321781E1,8.314483E3,9.8610236E2,7.5655396E1,1.8133093E0,5.3058706E3,3.033673E1,7.763116E3,1.2078683E4,1.2685978E3,6.067242E3,4.9799465E4,1.6878244E1,1.2832945E4,3.089909E1,9.233671E3,1.3365403E3,9.5982705E3,2.1859137E1,7.008873E2,9.250628E2,7.190961E2,6.9417476E3,1.0177643E4,3.9152438E2,3.9868594E2,7.7600327E3,4.4707095E3,1.2204675E3,1.818904E1,1.9912808E2,4.1050264E3,4.1039814E3,5.0701567E3,1.10593955E4,1.3573413E3,5.917802E4,3.8598332E4,8.1864044E1,8.470537E3,9.888532E0,9.624111E3,8.2924375E3,2.2045834E1,9.656126E2,2.0489765E1,3.8726086E1,3.692931E1,4.2106373E1,5.263764E3,7.071027E0,7.7560454E3,6.625591E3,5.453092E3,2.5574657E2,1.0128512E3,1.3797775E3,4.687465E3,4.008646E3,4.579082E4],"tree_param":{"num_deleted":"0","num_feature":"75","num_nodes":"107","size_leaf_vector":"1"}},{"base_weights":[1.0963137E-2,-8.142213E-1,1.3361136E0,-3.2405743E-1,-1.2545044E0,-1.4545101E-1,1.350776E0,1.5415403E0,-6.421397E-1,-1.3886784E0,-4.18891E-1,3.5546595E-1,1.3638079E0,1.4887744E0,1.6311792E0,-1.0283774E0,3.752566E-1,-8.596899E-1,-1.435932E0,-8.007565E-1,3.1438488E-1,-1.4618962E-1,1.2119303E0,-1.5643942E-1,1.3666418E0,1.4891915E-1,-7.86408E-2,1.6345844E0,-1.9706737E-1,1.3478812E0,-1.1964657E0,-3.3269322E-1,1.14598E0,-1.4571784E-1,1.900763E-1,-1.4431587E0,-6.6321605E-1,1.2517108E0,-1.0321122E0,1.2612585E0,-3.921715E-1,1.386667E0,-1.5331288E-1,-1.7826597E-1,1.3691157E0,2.574106E-1,1.6256903E-1,1.6063564E-1,-2.0307533E-1,-1.3186048E-1,-4.8992287E-2,8.600909E-2,-6.3472085E-2,-1.6360258E-1,1.2134937E-1,6.359737E-2,-1.6522942E-1,-1.2424322E-1,-1.4526446E-1,6.895341E-2,-1.6020392E-1,1.5206115E-1,-2.1994744E-1,1.122464E-2,-1.4031829E-1,1.342459E-1,-1.6213559E-1,-1.7184755E-1,8.038934E-2,1.4464982E-1,-1.3923542E-1,-1.7464331E-1,1.3714328E-1],"categories":[],"categories_nodes":[],"categories_segments":[],"categories_sizes":[],"default_left":[0,0,0,0,1,0,0,0,1,0,0,0,0,0,0,0,0,0,0,0,0,0,0,0,0,0,0,0,0,0,0,0,0,0,0,0,0,0,0,0,0,1,0,0,0,0,0,0,0,0,0,0,0,0,0,0,0,0,0,0,0,0,0,0,0,0,0,0,0,0,0,0,0],"id":5,"left_children":[1,3,5,7,9,-1,11,13,15,17,19,21,23,25,27,29,31,33,35,37,39,-1,41,-1,43,-1,-1,45,-1,47,49,51,53,-1,55,57,59,61,63,65,67,69,-1,-1,71,-1,-1,-1,-1,-1,-1,-1,-1,-1,-1,-1,-1,-1,-1,-1,-1,-1,-1,-1,-1,-1,-1,-1,-1,-1,-1,-1,-1],"loss_changes":[3.2382122E5,3.9383734E4,4.651828E3,5.1246145E4,1.0778203E4,0E0,1.4658281E3,5.7070312E1,2.8992064E4,2.0694062E3,3.7251353E3,2.2779866E3,9.2809375E2,8.693359E0,6.0260742E1,2.1361469E4,1.1077994E4,4.262485E3,4.2367188E2,4.1550674E3,3.0485486E3,0E0,4.7915564E2,0E0,8.709844E2,0E0,0E0,3.4645508E1,0E0,3.0889058E3,4.3094062E3,3.8130627E3,1.827708E3,0E0,2.0266288E3,1.4164062E2,8.9826196E2,8.261293E2,3.3386406E3,4.5794385E2,4.1415195E3,1.5756482E2,0E0,0E0,8.065E2,0E0,0E0,0E0,0E0,0E0,0E0,0E0,0E0,0E0,0E0,0E0,0E0,0E0,0E0,0E0,0E0,0E0,0E0,0E0,0E0,0E0,0E0,0E0,0E0,0E0,0E0,0E0,0E0],"parents":[2147483647,0,0,1,1,2,2,3,3,4,4,6,6,7,7,8,8,9,9,10,10,11,11,12,12,13,13,14,14,15,15,16,16,17,17,18,18,19,19,20,20,22,22,24,24,27,27,29,29,30,30,31,31,32,32,34,34,35,35,36,36,37,37,38,38,39,39,40,40,41,41,44,44],"right_children":[2,4,6,8,10,-1,12,14,16,18,20,22,24,26,28,30,32,34,36,38,40,-1,42,-1,44,-1,-1,46,-1,48,50,52,54,-1,56,58,60,62,64,66,68,70,-1,-1,72,-1,-1,-1,-1,-1,-1,-1,-1,-1,-1,-1,-1,-1,-1,-1,-1,-1,-1,-1,-1,-1,-1,-1,-1,-1,-1,-1,-1],"split_conditions":[5.489805E0,3.2449334E0,2.00001E0,2.00001E0,2.2E1,-1.4545101E-1,2.00001E0,4E0,2.2E1,2.00001E0,4.6666417E0,6.4595914E0,2.00001E0,3.2192757E0,3.1929424E0,2.00001E0,2.8587663E0,4.572647E0,5.4272823E0,2.00001E0,2.00001E0,-1.4618962E-1,2.501E3,-1.5643942E-1,2.00001E0,1.4891915E-1,-7.86408E-2,1.9657128E0,-1.9706737E-1,2.925846E0,2.925846E0,2.00001E0,2.00001E0,-1.4571784E-1,4.9349055E0,2.00001E0,2.00001E0,2.036E3,2.00001E0,5.020652E0,5.178914E0,1.1E1,-1.5331288E-1,-1.7826597E-1,2.00001E0,2.574106E-1,1.6256903E-1,1.6063564E-1,-2.0307533E-1,-1.3186048E-1,-4.8992287E-2,8.600909E-2,-6.3472085E-2,-1.6360258E-1,1.2134937E-1,6.359737E-2,-1.6522942E-1,-1.2424322E-1,-1.4526446E-1,6.895341E-2,-1.6020392E-1,1.5206115E-1,-2.1994744E-1,1.122464E-2,-1.4031829E-1,1.342459E-1,-1.6213559E-1,-1.7184755E-1,8.038934E-2,1.4464982E-1,-1.3923542E-1,-1.7464331E-1,1.3714328E-1],"split_indices":[70,70,12,1,71,0,8,71,71,0,70,70,6,70,70,2,70,70,70,8,0,0,67,0,9,0,0,70,0,70,70,8,5,0,70,8,13,67,9,70,70,71,0,0,0,0,0,0,0,0,0,0,0,0,0,0,0,0,0,0,0,0,0,0,0,0,0,0,0,0,0,0,0],"split_type":[0,0,0,0,0,0,0,0,0,0,0,0,0,0,0,0,0,0,0,0,0,0,0,0,0,0,0,0,0,0,0,0,0,0,0,0,0,0,0,0,0,0,0,0,0,0,0,0,0,0,0,0,0,0,0,0,0,0,0,0,0,0,0,0,0,0,0,0,0,0,0,0,0],"sum_hessian":[2.9613256E5,1.8249283E5,1.1363973E5,8.635557E4,9.6137266E4,5.934472E2,1.1304628E5,1.2578284E4,7.377728E4,8.283572E4,1.3301551E4,1.4613876E3,1.1158489E5,7.928686E3,4.6495986E3,5.3475992E4,2.0301293E4,6.7943594E3,7.604136E4,8.74655E3,4.5550015E3,4.6787662E2,9.935109E2,1.0735345E2,1.1147754E5,7.927578E3,1.1079389E0,4.6457524E3,3.8459365E0,3.532345E3,4.9943645E4,1.0581864E4,9.719428E3,4.3296772E3,2.4646821E3,7.533593E4,7.054269E2,8.85596E2,7.8609536E3,1.9461427E3,2.608859E3,9.34519E2,5.899196E1,8.693602E1,1.113906E5,4.0862347E1,4.60489E3,3.2818025E3,2.5054253E2,4.258174E4,7.361907E3,2.1376987E3,8.444166E3,2.2973177E2,9.489696E3,1.9849354E3,4.797467E2,3.4054983E3,7.193043E4,2.891116E2,4.163153E2,8.22101E2,6.349501E1,1.9250173E3,5.935936E3,1.8933433E3,5.2799366E1,1.2368699E3,1.371989E3,9.152926E2,1.92264E1,8.222095E1,1.1130838E5],"tree_param":{"num_deleted":"0","num_feature":"75","num_nodes":"73","size_leaf_vector":"1"}},{"base_weights":[1.0444824E-2,-4.6665424E-1,8.2606E-1,5.8947873E-1,-8.8052773E-1,1.192E0,7.1136606E-1,9.0799767E-1,3.7680268E-1,-3.9438543E-1,-9.3736106E-1,1.2321022E0,3.51225E-1,1.1117991E0,6.3998944E-1,8.7633437E-1,1.0685413E0,1.5640466E-1,5.326302E-1,-5.174E-1,9.75421E-1,-4.1896033E-1,-1.0024498E0,1.2802997E0,1.1875409E0,4.543068E-1,-1.5883534E-1,1.3562193E0,9.433344E-1,9.401914E-1,5.7209116E-1,-4.0968755E-1,8.8358545E-1,-1.4184943E-1,1.0778209E0,6.043685E-1,9.785721E-2,-6.1570294E-2,5.9041697E-1,9.326474E-2,-5.594207E-1,-1.3236618E-1,1.0327729E0,-1.0673589E0,-1.7981209E-1,-7.41524E-1,-1.0402961E0,-1.6708715E-1,1.2824142E0,1.1927906E0,-1.699151E-1,3.0856597E-1,1.0809854E0,-1.04419746E-1,1.3575292E0,-1.3404597E-1,9.5199543E-1,1.0057912E0,3.0969667E-1,1.14784524E-1,6.067509E-1,-1.4657329E-1,7.815606E-2,-1.3748533E-1,8.8544756E-2,-1.3796173E-1,1.087155E-1,-1.5912402E-1,6.6413395E-2,3.3272516E-2,-1.1341828E-2,9.058652E-3,-1.4631175E-1,-1.624661E-1,6.0286928E-2,3.2102726E-2,-1.4185415E-1,-5.8239963E-2,5.7358373E-2,1.0672516E-1,-1.2885837E-1,2.8465051E-2,-1.1414198E-1,6.5518185E-2,-3.7005376E-2,-1.2042896E-1,-5.6081302E-2,-1.24170125E-1,-1.0109144E-1,5.9869338E-2,1.2850907E-1,-1.6055141E-1,1.1959811E-1,1.1931677E-1,1.7603336E-2,1.2044574E-1,-1.4828314E-1,1.3742366E-1,1.3141304E-1,8.030301E-2,1.03245E-1,1.0179789E-1,-1.7558645E-1,-8.520489E-2,6.817004E-2,1.7758696E-1,7.7292346E-3,1.2810871E-2,6.446957E-2],"categories":[],"categories_nodes":[],"categories_segments":[],"categories_sizes":[],"default_left":[0,0,0,0,0,0,0,0,0,0,0,0,0,0,0,0,0,0,0,0,0,0,0,0,0,0,0,0,0,0,0,0,0,0,0,0,0,0,0,0,0,0,0,0,0,0,0,0,0,0,0,0,0,0,0,0,0,0,0,0,0,0,0,0,0,0,0,0,0,0,0,0,0,0,0,0,0,0,0,0,0,0,0,0,0,0,0,0,0,0,0,0,0,0,0,0,0,0,0,0,0,0,0,0,0,0,0,0,0],"id":6,"left_children":[1,3,5,7,9,11,13,15,17,19,21,23,25,27,29,31,33,35,37,39,41,43,45,47,49,51,-1,53,55,57,59,61,63,-1,65,67,69,71,73,75,77,-1,79,81,83,85,87,-1,89,91,-1,93,95,-1,97,-1,99,101,103,105,107,-1,-1,-1,-1,-1,-1,-1,-1,-1,-1,-1,-1,-1,-1,-1,-1,-1,-1,-1,-1,-1,-1,-1,-1,-1,-1,-1,-1,-1,-1,-1,-1,-1,-1,-1,-1,-1,-1,-1,-1,-1,-1,-1,-1,-1,-1,-1,-1],"loss_changes":[1.0991769E5,7.790145E4,4.3746797E3,3.3987578E3,3.5373516E3,8.383047E2,2.2679766E3,1.0118164E2,1.0333159E3,2.2591692E3,3.867789E3,4.9476562E1,2.2742505E2,4.931172E2,1.3726797E3,1.5688574E2,7.779932E1,3.268387E2,6.052739E2,3.1568115E2,1.4705493E2,1.98306E3,1.0050156E3,7.3240234E1,1.8919531E2,9.807196E1,0E0,1.6813477E1,1.4193408E2,5.136006E2,8.708301E2,1.2039749E2,7.1413086E1,0E0,7.7036865E1,1.9008514E2,5.470977E2,3.334859E2,4.4407812E2,2.7342752E2,2.9995752E2,0E0,8.770056E1,3.4537964E2,1.4846876E3,1.0785537E3,5.2510156E2,0E0,2.0064453E1,1.11990234E2,0E0,1.024379E2,6.6013794E1,0E0,1.7431641E0,0E0,8.408252E1,3.8057324E2,5.0726035E2,2.4101718E2,9.275293E2,0E0,0E0,0E0,0E0,0E0,0E0,0E0,0E0,0E0,0E0,0E0,0E0,0E0,0E0,0E0,0E0,0E0,0E0,0E0,0E0,0E0,0E0,0E0,0E0,0E0,0E0,0E0,0E0,0E0,0E0,0E0,0E0,0E0,0E0,0E0,0E0,0E0,0E0,0E0,0E0,0E0,0E0,0E0,0E0,0E0,0E0,0E0,0E0],"parents":[2147483647,0,0,1,1,2,2,3,3,4,4,5,5,6,6,7,7,8,8,9,9,10,10,11,11,12,12,13,13,14,14,15,15,16,16,17,17,18,18,19,19,20,20,21,21,22,22,23,23,24,24,25,25,27,27,28,28,29,29,30,30,31,31,32,32,34,34,35,35,36,36,37,37,38,38,39,39,40,40,42,42,43,43,44,44,45,45,46,46,48,48,49,49,51,51,52,52,54,54,56,56,57,57,58,58,59,59,60,60],"right_children":[2,4,6,8,10,12,14,16,18,20,22,24,26,28,30,32,34,36,38,40,42,44,46,48,50,52,-1,54,56,58,60,62,64,-1,66,68,70,72,74,76,78,-1,80,82,84,86,88,-1,90,92,-1,94,96,-1,98,-1,100,102,104,106,108,-1,-1,-1,-1,-1,-1,-1,-1,-1,-1,-1,-1,-1,-1,-1,-1,-1,-1,-1,-1,-1,-1,-1,-1,-1,-1,-1,-1,-1,-1,-1,-1,-1,-1,-1,-1,-1,-1,-1,-1,-1,-1,-1,-1,-1,-1,-1,-1],"split_conditions":[2.2E1,4E0,2.00001E0,2.00001E0,2.00001E0,4.600001E1,2.00001E0,1.51022E5,2.208E3,1.2E1,2.00001E0,2.807E3,-7.6905334E1,4.600001E1,2.00001E0,2.806E1,2.00001E0,2.00001E0,2.00001E0,2.96047E1,1.291E4,1.2E1,2.00001E0,2.00001E0,4.5671E1,9.4014E4,-1.5883534E-1,2.00001E0,2.00001E0,4.600001E1,2.00001E0,-8.0726006E1,4.6E1,-1.4184943E-1,2.00001E0,2.00001E0,2.00001E0,7.7358E4,-1.226616E2,-8.15107E1,-7.03001E1,-1.3236618E-1,5.25713E5,2.00001E0,4.98E2,1.2E1,2.00001E0,-1.6708715E-1,2.00001E0,2.916E3,-1.699151E-1,2.00001E0,6.73342E5,-1.04419746E-1,2.607E3,-1.3404597E-1,2.078E3,1.312922E6,1.617E3,2.00001E0,2.00001E0,-1.4657329E-1,7.815606E-2,-1.3748533E-1,8.8544756E-2,-1.3796173E-1,1.087155E-1,-1.5912402E-1,6.6413395E-2,3.3272516E-2,-1.1341828E-2,9.058652E-3,-1.4631175E-1,-1.624661E-1,6.0286928E-2,3.2102726E-2,-1.4185415E-1,-5.8239963E-2,5.7358373E-2,1.0672516E-1,-1.2885837E-1,2.8465051E-2,-1.1414198E-1,6.5518185E-2,-3.7005376E-2,-1.2042896E-1,-5.6081302E-2,-1.24170125E-1,-1.0109144E-1,5.9869338E-2,1.2850907E-1,-1.6055141E-1,1.1959811E-1,1.1931677E-1,1.7603336E-2,1.2044574E-1,-1.4828314E-1,1.3742366E-1,1.3141304E-1,8.030301E-2,1.03245E-1,1.0179789E-1,-1.7558645E-1,-8.520489E-2,6.817004E-2,1.7758696E-1,7.7292346E-3,1.2810871E-2,6.446957E-2],"split_indices":[71,71,10,3,3,71,3,67,67,71,10,67,69,71,11,65,16,2,2,65,64,71,11,57,65,67,0,38,61,71,0,69,67,0,49,51,1,64,66,66,66,0,67,25,67,71,5,0,14,67,0,25,67,0,67,0,67,67,67,20,4,0,0,0,0,0,0,0,0,0,0,0,0,0,0,0,0,0,0,0,0,0,0,0,0,0,0,0,0,0,0,0,0,0,0,0,0,0,0,0,0,0,0,0,0,0,0,0,0],"split_type":[0,0,0,0,0,0,0,0,0,0,0,0,0,0,0,0,0,0,0,0,0,0,0,0,0,0,0,0,0,0,0,0,0,0,0,0,0,0,0,0,0,0,0,0,0,0,0,0,0,0,0,0,0,0,0,0,0,0,0,0,0,0,0,0,0,0,0,0,0,0,0,0,0,0,0,0,0,0,0,0,0,0,0,0,0,0,0,0,0,0,0,0,0,0,0,0,0,0,0,0,0,0,0,0,0,0,0,0,0],"sum_hessian":[2.824689E5,1.7821902E5,1.04249875E5,5.0176613E4,1.2804241E5,2.4874963E4,7.9374914E4,2.0088047E4,3.0088566E4,1.3403048E4,1.1463936E5,2.374208E4,1.1328839E3,1.2005851E4,6.736906E4,1.6784227E4,3.3038203E3,1.2463107E4,1.7625459E4,1.2299153E4,1.1038951E3,1.2788944E4,1.01850414E5,1.1392361E4,1.2349718E4,1.0764406E3,5.6443306E1,4.895732E3,7.1101187E3,1.2424245E4,5.4944816E4,9.379395E1,1.6690432E4,1.1716777E1,3.2921035E3,1.4395282E3,1.1023579E4,1.5621682E3,1.6063291E4,7.917567E2,1.1507396E4,2.6329662E1,1.0775654E3,3.44503E3,9.343914E3,1.2904298E4,8.894612E4,7.591531E0,1.138477E4,1.2327886E4,2.1832935E1,8.745475E2,2.0189308E2,2.2357247E0,4.893496E3,2.6281599E1,7.0838374E3,1.1252848E4,1.1713978E3,3.8712444E3,5.107357E4,4.959628E1,4.4197674E1,1.3142756E1,1.667729E4,1.1901535E1,3.280202E3,3.7467228E1,1.402061E3,5.220049E3,5.8035303E3,1.4100262E3,1.5214198E2,8.907294E1,1.5974218E4,6.887762E2,1.0298053E2,1.1279126E4,2.2827039E2,1.0623271E3,1.5238285E1,1.7876505E2,3.266265E3,1.7333936E3,7.6105205E3,3.6223926E3,9.281905E3,1.1318597E4,7.762752E4,4.526961E1,1.13395E4,1.34674E1,1.2314418E4,1.12910774E2,7.616367E2,1.931226E2,8.7704735E0,3.51113E3,1.3823661E3,2.48806E3,4.5957773E3,1.1204033E4,4.8814167E1,2.8380408E2,8.875937E2,8.442536E1,3.786819E3,3.7518164E3,4.7321754E4],"tree_param":{"num_deleted":"0","num_feature":"75","num_nodes":"109","size_leaf_vector":"1"}},{"base_weights":[7.5703333E-3,-7.7288914E-1,1.2483406E0,-3.174315E-1,-1.1830617E0,-1.370127E-1,1.261611E0,-1.2827065E0,1.0483922E-1,-1.3058693E0,-4.581415E-1,5.7691514E-1,1.279142E0,-2.022501E-1,-1.3432183E0,9.790284E-1,-2.2618923E-1,-8.243688E-1,-1.3489025E0,-8.264406E-1,2.4446905E-1,-2.0819263E-1,1.1856292E0,1.167672E0,1.3457395E0,-1.1057656E0,7.646273E-1,6.695055E-2,-1.3552002E0,-1.8164544E-1,1.0780838E0,-6.6489214E-1,5.282626E-1,-1.3612225E0,9.974735E-2,-1.3569148E0,-5.278725E-1,-3.6984846E-1,-1.4415166E0,1.1909676E0,-4.6731988E-1,9.8504174E-1,-1.2411909E0,-3.2011768E-1,1.2116293E0,-2.9610624E0,1.2193316E0,1.36135E0,1.3282536E0,4.831486E-2,-1.3655765E-1,1.0351755E-1,-1.6552195E-1,-1.3929409E-1,1.5769033E-1,-1.3935176E-1,-1.0997726E-1,-1.8354933E-1,1.1580594E-1,1.3031085E-1,-7.4399695E-2,-9.404491E-3,1.0252786E-1,-1.4727573E-1,-1.3537003E-1,5.0183173E-2,-1.51837E-1,-1.4812973E-1,-1.3259692E-1,1.788852E-1,-1.2169447E-1,-1.3723819E-1,8.8097945E-2,-1.5316564E-1,-7.5167656E-2,1.265338E-1,-1.5286395E-1,-1.6574413E-1,7.518454E-2,1.3918479E-1,-5.727549E-3,8.088761E-2,-2.2535451E-1,-3.197371E-1,1.23526655E-1,-2.869279E-1,-3.7412128E-1,-2.1458256E-1,1.2724018E-1,1.2993498E-1,1.3773143E-1,1.3485073E-1,1.253996E-1],"categories":[],"categories_nodes":[],"categories_segments":[],"categories_sizes":[],"default_left":[0,0,0,0,1,0,0,0,1,0,0,0,0,0,0,0,0,0,0,0,0,0,0,0,0,0,0,0,0,0,0,0,0,1,0,1,0,0,0,0,0,0,0,0,0,1,0,0,0,0,0,0,0,0,0,0,0,0,0,0,0,0,0,0,0,0,0,0,0,0,0,0,0,0,0,0,0,0,0,0,0,0,0,0,0,0,0,0,0,0,0,0,0],"id":7,"left_children":[1,3,5,7,9,-1,11,13,15,17,19,21,23,25,27,29,31,33,35,37,39,41,43,45,47,49,51,53,55,-1,57,59,61,63,65,67,69,71,73,75,77,79,81,-1,83,85,87,89,91,-1,-1,-1,-1,-1,-1,-1,-1,-1,-1,-1,-1,-1,-1,-1,-1,-1,-1,-1,-1,-1,-1,-1,-1,-1,-1,-1,-1,-1,-1,-1,-1,-1,-1,-1,-1,-1,-1,-1,-1,-1,-1,-1,-1],"loss_changes":[2.6565728E5,3.1460469E4,3.6825469E3,3.252679E4,7.887742E3,0E0,1.264375E3,1.5875078E3,1.6065161E4,1.568875E3,3.3222476E3,1.2585796E3,7.612969E2,1.1270392E3,3.8866016E2,4.224249E3,1.332817E4,3.085396E3,4.5683594E2,2.3649575E3,2.9755444E3,1.4196448E3,1.7305591E2,8.20268E3,1.575E1,2.759361E2,4.098011E2,4.3140256E2,2.2164844E2,0E0,3.4337012E3,3.9649092E3,4.5796445E3,1.3066406E0,1.4881638E3,2.6315625E2,1.0778754E3,6.065075E3,2.2197754E2,3.853562E2,3.6593137E3,2.2672662E2,1.2828175E3,0E0,1.5769531E2,2.330127E1,6.783199E3,3.1800781E1,4.4003906E1,0E0,0E0,0E0,0E0,0E0,0E0,0E0,0E0,0E0,0E0,0E0,0E0,0E0,0E0,0E0,0E0,0E0,0E0,0E0,0E0,0E0,0E0,0E0,0E0,0E0,0E0,0E0,0E0,0E0,0E0,0E0,0E0,0E0,0E0,0E0,0E0,0E0,0E0,0E0,0E0,0E0,0E0,0E0,0E0],"parents":[2147483647,0,0,1,1,2,2,3,3,4,4,6,6,7,7,8,8,9,9,10,10,11,11,12,12,13,13,14,14,15,15,16,16,17,17,18,18,19,19,20,20,21,21,22,22,23,23,24,24,25,25,26,26,27,27,28,28,30,30,31,31,32,32,33,33,34,34,35,35,36,36,37,37,38,38,39,39,40,40,41,41,42,42,44,44,45,45,46,46,47,47,48,48],"right_children":[2,4,6,8,10,-1,12,14,16,18,20,22,24,26,28,30,32,34,36,38,40,42,44,46,48,50,52,54,56,-1,58,60,62,64,66,68,70,72,74,76,78,80,82,-1,84,86,88,90,92,-1,-1,-1,-1,-1,-1,-1,-1,-1,-1,-1,-1,-1,-1,-1,-1,-1,-1,-1,-1,-1,-1,-1,-1,-1,-1,-1,-1,-1,-1,-1,-1,-1,-1,-1,-1,-1,-1,-1,-1,-1,-1,-1,-1],"split_conditions":[5.489805E0,3.2449334E0,2.00001E0,2.024193E0,2.2E1,-1.370127E-1,5.584661E0,2.00001E0,4E0,2.00001E0,4.6666417E0,2.2E1,6.4595914E0,2.2E1,-1.242174E2,2.00001E0,2.2E1,4.572647E0,5.4272823E0,4.001132E0,2.00001E0,2.00001E0,2.00001E0,2.00001E0,6.8287444E0,1.77E2,1.97E3,2.3E1,1.9242487E0,-1.8164544E-1,2.00001E0,2.00001E0,2.8925915E0,4E0,4.9349055E0,4E0,2.00001E0,3.893044E0,4.572647E0,5.020652E0,5.213086E0,2.00001E0,2.00001E0,-3.2011768E-1,2.00001E0,2.2E1,2.00001E0,2.00001E0,2.00001E0,4.831486E-2,-1.3655765E-1,1.0351755E-1,-1.6552195E-1,-1.3929409E-1,1.5769033E-1,-1.3935176E-1,-1.0997726E-1,-1.8354933E-1,1.1580594E-1,1.3031085E-1,-7.4399695E-2,-9.404491E-3,1.0252786E-1,-1.4727573E-1,-1.3537003E-1,5.0183173E-2,-1.51837E-1,-1.4812973E-1,-1.3259692E-1,1.788852E-1,-1.2169447E-1,-1.3723819E-1,8.8097945E-2,-1.5316564E-1,-7.5167656E-2,1.265338E-1,-1.5286395E-1,-1.6574413E-1,7.518454E-2,1.3918479E-1,-5.727549E-3,8.088761E-2,-2.2535451E-1,-3.197371E-1,1.23526655E-1,-2.869279E-1,-3.7412128E-1,-2.1458256E-1,1.2724018E-1,1.2993498E-1,1.3773143E-1,1.3485073E-1,1.253996E-1],"split_indices":[70,70,12,70,71,0,70,6,71,0,70,71,70,71,66,11,71,70,70,70,0,3,11,10,70,67,67,71,70,0,10,2,70,71,70,71,5,70,70,70,70,13,5,0,10,71,11,10,10,0,0,0,0,0,0,0,0,0,0,0,0,0,0,0,0,0,0,0,0,0,0,0,0,0,0,0,0,0,0,0,0,0,0,0,0,0,0,0,0,0,0,0,0],"split_type":[0,0,0,0,0,0,0,0,0,0,0,0,0,0,0,0,0,0,0,0,0,0,0,0,0,0,0,0,0,0,0,0,0,0,0,0,0,0,0,0,0,0,0,0,0,0,0,0,0,0,0,0,0,0,0,0,0,0,0,0,0,0,0,0,0,0,0,0,0,0,0,0,0,0,0,0,0,0,0,0,0,0,0,0,0,0,0,0,0,0,0,0,0],"sum_hessian":[2.7433222E5,1.6840428E5,1.05927945E5,7.9797984E4,8.86063E4,5.336197E2,1.0539433E5,2.428424E4,5.5513742E4,7.57695E4,1.2836792E4,2.6320125E3,1.0276231E5,1.2881578E3,2.2996082E4,1.5247021E4,4.026672E4,6.2178394E3,6.9551664E4,8.421945E3,4.414847E3,1.1497478E3,1.4822646E3,3.844015E4,6.4322164E4,6.658236E2,6.2233417E2,1.9370714E2,2.2802375E4,5.21182E2,1.472584E4,2.54614E4,1.480532E4,3.9327087E3,2.2851309E3,6.887883E4,6.728317E2,4.8346323E3,3.5873127E3,1.8947018E3,2.5201455E3,5.335181E2,6.1622974E2,8.0139065E0,1.4742507E3,4.7433163E2,3.7965816E4,3.394263E4,3.0379535E4,9.345085E1,5.7237274E2,5.602664E2,6.2067734E1,9.852559E1,9.518155E1,1.9824064E4,2.9783108E3,3.9282846E2,1.4333012E4,9.832878E2,2.4478113E4,6.574403E3,8.230917E3,2.3616684E2,3.696542E3,1.8308698E3,4.542611E2,1.3713163E4,5.5165668E4,1.5387929E2,5.189524E2,2.6836226E3,2.1510098E3,3.1716592E3,4.1565338E2,1.8447888E3,4.9912914E1,1.2750809E3,1.2450645E3,3.835047E2,1.5001343E2,2.0377545E2,4.1245425E2,7.145516E0,1.4671052E3,4.2858698E2,4.5744656E1,5.888311E2,3.737699E4,6.967094E3,2.6975535E4,2.3855791E4,6.523745E3],"tree_param":{"num_deleted":"0","num_feature":"75","num_nodes":"93","size_leaf_vector":"1"}},{"base_weights":[-7.296639E-3,-7.244203E-1,1.1901118E0,-2.9555777E-1,-1.1192706E0,-1.3219689E-1,1.2033975E0,1.4180906E0,-5.7583976E-1,-1.2432275E0,-4.0990156E-1,2.683477E-1,1.2168727E0,1.378379E0,1.668879E0,-9.130995E-1,1.6676405E-1,-7.110538E-1,-1.2924377E0,-7.6342607E-1,2.9438347E-1,-1.1507181E0,1.0724845E0,6.110935E-1,1.2329485E0,1.3787934E0,-1.0691084E-1,1.6721803E-1,-1.2795469E-1,1.1458375E0,-1.0414774E0,-3.4977636E-1,8.987655E-1,-1.3168058E0,2.5417948E-1,-1.3518196E0,-1.2197073E0,1.4936419E-1,-1.0524399E0,1.1095113E0,-2.3015015E-1,7.5448376E-1,-1.4161056E-1,-1.6104273E0,1.2327061E0,1.234802E0,5.942919E-2,1.1376402E0,1.2928702E0,1.3599595E-1,1.4278384E-1,1.4365567E-1,-1.8733951E-1,-1.1923087E-1,-3.032896E-2,7.1700126E-2,-6.4410634E-2,-1.6316596E-1,9.676181E-2,-1.4167826E-1,-1.3099357E-1,6.0484618E-2,-1.1531246E-1,-1.4137417E-1,-1.3163187E-1,-2.4844771E-2,-1.2521882E-1,6.632798E-2,-1.6629134E-1,9.111266E-2,-1.2926964E-1,1.184984E-1,-1.4486723E-1,8.563973E-2,-1.5916331E-1,1.607285E-1,-1.353874E-1,-1.8638144E-1,-1.376345E-1,1.3106091E-1,-1.3810116E-1,1.2502028E-1,-2.3088789E-1,1.0834708E-1,-2.2322808E-1,-2.4615572E-1,1.1904651E-1,1.335511E-1,1.2767425E-1],"categories":[],"categories_nodes":[],"categories_segments":[],"categories_sizes":[],"default_left":[0,0,0,0,1,0,0,1,0,0,0,0,0,0,0,0,0,0,1,0,0,0,0,0,0,0,0,0,0,0,0,0,0,1,0,1,0,0,0,0,0,0,0,1,1,0,0,0,0,0,0,0,0,0,0,0,0,0,0,0,0,0,0,0,0,0,0,0,0,0,0,0,0,0,0,0,0,0,0,0,0,0,0,0,0,0,0,0,0],"id":8,"left_children":[1,3,5,7,9,-1,11,13,15,17,19,21,23,25,27,29,31,33,35,37,39,41,43,45,47,49,-1,-1,-1,51,53,55,57,59,61,63,65,67,69,71,73,75,-1,77,79,81,83,85,87,-1,-1,-1,-1,-1,-1,-1,-1,-1,-1,-1,-1,-1,-1,-1,-1,-1,-1,-1,-1,-1,-1,-1,-1,-1,-1,-1,-1,-1,-1,-1,-1,-1,-1,-1,-1,-1,-1,-1,-1],"loss_changes":[2.2109345E5,2.726871E4,3.220375E3,3.7077453E4,7.3717812E3,0E0,1.2084688E3,1.0576953E2,1.6615955E4,1.8681406E3,3.1057537E3,1.5579478E3,9.202344E2,1.0982422E1,1.6532227E1,1.2060523E4,7.835139E3,3.5337356E3,2.8048438E2,2.1910073E3,1.7828547E3,2.507998E2,3.7651385E2,8.4182715E2,5.246719E2,6.7148438E0,0E0,0E0,0E0,2.3534934E3,4.7813633E3,3.8151235E3,1.4952051E3,6.9433594E-1,1.15104E3,7.717969E1,9.263594E2,1.861968E3,2.9768813E3,3.1692725E2,3.7553093E3,1.1192825E2,0E0,3.7275696E-1,1.6933472E2,6.5559814E1,3.0519902E3,6.765953E3,3.71875E1,0E0,0E0,0E0,0E0,0E0,0E0,0E0,0E0,0E0,0E0,0E0,0E0,0E0,0E0,0E0,0E0,0E0,0E0,0E0,0E0,0E0,0E0,0E0,0E0,0E0,0E0,0E0,0E0,0E0,0E0,0E0,0E0,0E0,0E0,0E0,0E0,0E0,0E0,0E0,0E0],"parents":[2147483647,0,0,1,1,2,2,3,3,4,4,6,6,7,7,8,8,9,9,10,10,11,11,12,12,13,13,14,14,15,15,16,16,17,17,18,18,19,19,20,20,21,21,22,22,23,23,24,24,25,25,29,29,30,30,31,31,32,32,33,33,34,34,35,35,36,36,37,37,38,38,39,39,40,40,41,41,43,43,44,44,45,45,46,46,47,47,48,48],"right_children":[2,4,6,8,10,-1,12,14,16,18,20,22,24,26,28,30,32,34,36,38,40,42,44,46,48,50,-1,-1,-1,52,54,56,58,60,62,64,66,68,70,72,74,76,-1,78,80,82,84,86,88,-1,-1,-1,-1,-1,-1,-1,-1,-1,-1,-1,-1,-1,-1,-1,-1,-1,-1,-1,-1,-1,-1,-1,-1,-1,-1,-1,-1,-1,-1,-1,-1,-1,-1,-1,-1,-1,-1,-1,-1],"split_conditions":[5.489805E0,3.2449334E0,2.00001E0,2.00001E0,2.2E1,-1.3219689E-1,2.00001E0,4E0,2.2E1,2.00001E0,4.706914E0,6.4595914E0,5.584661E0,3.2192757E0,8.3869E4,2.00001E0,2.8587663E0,4.5833335E0,1.2E1,2.00001E0,2.00001E0,2.00001E0,2.00001E0,2.00001E0,6.4595914E0,4E0,-1.0691084E-1,1.6721803E-1,-1.2795469E-1,2.925846E0,2.8925915E0,2.00001E0,2.00001E0,4E0,4.9349055E0,4E0,2.00001E0,4.001132E0,2.00001E0,5.020652E0,2.00001E0,2E0,-1.4161056E-1,1.1E1,1.1E1,8.3252E4,2.00001E0,2.00001E0,2.00001E0,1.3599595E-1,1.4278384E-1,1.4365567E-1,-1.8733951E-1,-1.1923087E-1,-3.032896E-2,7.1700126E-2,-6.4410634E-2,-1.6316596E-1,9.676181E-2,-1.4167826E-1,-1.3099357E-1,6.0484618E-2,-1.1531246E-1,-1.4137417E-1,-1.3163187E-1,-2.4844771E-2,-1.2521882E-1,6.632798E-2,-1.6629134E-1,9.111266E-2,-1.2926964E-1,1.184984E-1,-1.4486723E-1,8.563973E-2,-1.5916331E-1,1.607285E-1,-1.353874E-1,-1.8638144E-1,-1.376345E-1,1.3106091E-1,-1.3810116E-1,1.2502028E-1,-2.3088789E-1,1.0834708E-1,-2.2322808E-1,-2.4615572E-1,1.1904651E-1,1.335511E-1,1.2767425E-1],"split_indices":[70,70,12,1,71,0,8,71,71,0,70,70,70,70,64,2,70,70,71,9,0,14,13,5,70,71,0,0,0,70,70,12,5,71,70,71,8,70,8,70,5,71,0,71,71,64,3,10,7,0,0,0,0,0,0,0,0,0,0,0,0,0,0,0,0,0,0,0,0,0,0,0,0,0,0,0,0,0,0,0,0,0,0,0,0,0,0,0,0],"split_type":[0,0,0,0,0,0,0,0,0,0,0,0,0,0,0,0,0,0,0,0,0,0,0,0,0,0,0,0,0,0,0,0,0,0,0,0,0,0,0,0,0,0,0,0,0,0,0,0,0,0,0,0,0,0,0,0,0,0,0,0,0,0,0,0,0,0,0,0,0,0,0,0,0,0,0,0,0,0,0,0,0,0,0,0,0,0,0,0,0],"sum_hessian":[2.5747564E5,1.6103358E5,9.6442055E4,7.719297E4,8.384061E4,5.068598E2,9.5935195E4,1.085026E4,6.634271E4,7.136871E4,1.2471901E4,1.3631943E3,9.4572E4,9.372627E3,1.4776332E3,4.5622598E4,2.0720113E4,6.042184E3,6.5326527E4,8.303682E3,4.168219E3,4.929142E2,8.702801E2,2.4458325E3,9.212617E4,9.371477E3,1.1502383E0,1.476413E3,1.2202518E0,2.677218E3,4.294538E4,1.2148199E4,8.571914E3,3.712171E3,2.3300132E3,3.595384E4,2.9372688E4,1.9970133E3,6.3066685E3,1.631596E3,2.5366233E3,6.0040924E1,4.328733E2,4.8533577E1,8.217465E2,1.1473768E3,1.2984558E3,3.5570086E4,5.6556086E4,6.7919883E3,2.5794885E3,2.4425513E3,2.3466682E2,3.5658746E4,7.286633E3,2.6266526E3,9.521547E3,2.2646121E2,8.345453E3,2.2549246E2,3.4866785E3,1.8656964E3,4.6431693E2,1.3087427E4,2.2866414E4,9.507783E2,2.8421908E4,1.5563159E3,4.406974E2,6.872364E2,5.619432E3,1.5853606E3,4.6235268E1,1.4109606E3,1.1256626E3,4.291861E1,1.7122314E1,1.9962519E1,2.857106E1,7.98447E2,2.329949E1,1.1430563E3,4.3204966E0,8.9780316E2,4.0065265E2,5.1384534E2,3.505624E4,1.5498078E4,4.1058008E4],"tree_param":{"num_deleted":"0","num_feature":"75","num_nodes":"89","size_leaf_vector":"1"}},{"base_weights":[7.387501E-3,-6.8894017E-1,1.1393367E0,-2.7286002E-1,-1.0927092E0,-1.2838797E-1,1.1516165E0,1.3727739E0,-5.4049844E-1,-2.8341296E-1,-1.1911062E0,4.9178973E-1,1.1789081E0,1.3352138E0,1.5752472E0,-8.7884426E-1,1.6814204E-1,-1.2926255E0,6.622834E-1,-1.2608962E0,-7.175465E-1,1.2844608E0,-2.2626384E-1,1.0672289E0,1.2475221E0,1.7977014E0,1.330805E0,1.5792975E0,-8.864164E-2,9.8069876E-1,-9.863686E-1,-3.1670633E-1,8.168173E-1,-1.2748635E-1,-1.37242E-1,8.251306E-1,-1.3985549E0,-1.309957E0,-1.200091E0,-2.6179257E-1,-1.1127112E0,1.303856E0,-2.0354132E-1,8.39698E-1,-1.7280147E0,1.2967955E0,1.5572077E-1,1.2875175E0,1.2335141E0,2.0996349E-1,1.3951604E-1,1.3285409E-1,1.7408082E-1,1.5682924E-1,1.7528076E-1,1.2887575E-1,-1.6990899E-1,-1.127091E-1,-2.4970753E-2,7.0427075E-2,-6.187367E-2,8.652808E-2,-2.6770404E-1,3.4517743E-2,1.2440232E-1,-1.8337493E-1,-1.356387E-1,-1.3676296E-1,-1.2767982E-1,-1.09891176E-1,-1.2612955E-1,-1.120699E-1,7.641127E-2,-1.445688E-1,3.887641E-2,-2.0515156E-1,1.3114662E-1,9.627751E-2,-1.584667E-2,-1.4524494E-1,-1.9221881E-1,1.2821953E-1,1.3307096E-1,-7.19738E-2,1.0558727E-1,-2.1962123E-1,1.2880625E-1,1.1838297E-1,1.254568E-1],"categories":[],"categories_nodes":[],"categories_segments":[],"categories_sizes":[],"default_left":[0,0,0,0,0,0,0,1,0,0,1,0,0,0,0,0,0,0,0,1,0,0,0,0,0,0,0,0,0,0,0,0,0,0,0,0,0,1,0,0,0,0,0,0,0,1,1,0,0,0,0,0,0,0,0,0,0,0,0,0,0,0,0,0,0,0,0,0,0,0,0,0,0,0,0,0,0,0,0,0,0,0,0,0,0,0,0,0,0],"id":9,"left_children":[1,3,5,7,9,-1,11,13,15,17,19,21,23,25,27,29,31,33,35,37,39,41,43,45,47,49,51,53,-1,55,57,59,61,-1,-1,63,65,67,69,71,73,75,-1,77,79,81,83,85,87,-1,-1,-1,-1,-1,-1,-1,-1,-1,-1,-1,-1,-1,-1,-1,-1,-1,-1,-1,-1,-1,-1,-1,-1,-1,-1,-1,-1,-1,-1,-1,-1,-1,-1,-1,-1,-1,-1,-1,-1],"loss_changes":[1.9391123E5,2.5588938E4,2.7896406E3,3.3040414E4,6.155375E3,0E0,1.6782344E3,7.7703125E1,1.5470568E4,7.9998247E3,2.2769297E3,2.1088735E3,6.8466406E2,1.5669922E1,1.7717041E1,8.732988E3,6.558478E3,3.9975586E0,1.4534198E3,1.77625E2,1.5944541E3,1.1604224E2,3.114443E3,7.13041E3,2.946875E1,6.8910217E0,5.8378906E0,3.713379E-1,0E0,1.9733174E3,4.279535E3,3.6803882E3,1.5126099E3,0E0,0E0,8.059927E2,3.335144E0,6.1808594E1,1.6479297E2,3.625488E3,2.3715483E3,4.741089E1,0E0,1.3995868E2,4.0421875E1,1.17734375E1,5.404266E3,3.0089844E1,4.15E1,0E0,0E0,0E0,0E0,0E0,0E0,0E0,0E0,0E0,0E0,0E0,0E0,0E0,0E0,0E0,0E0,0E0,0E0,0E0,0E0,0E0,0E0,0E0,0E0,0E0,0E0,0E0,0E0,0E0,0E0,0E0,0E0,0E0,0E0,0E0,0E0,0E0,0E0,0E0,0E0],"parents":[2147483647,0,0,1,1,2,2,3,3,4,4,6,6,7,7,8,8,9,9,10,10,11,11,12,12,13,13,14,14,15,15,16,16,17,17,18,18,19,19,20,20,21,21,22,22,23,23,24,24,25,25,26,26,27,27,29,29,30,30,31,31,32,32,35,35,36,36,37,37,38,38,39,39,40,40,41,41,43,43,44,44,45,45,46,46,47,47,48,48],"right_children":[2,4,6,8,10,-1,12,14,16,18,20,22,24,26,28,30,32,34,36,38,40,42,44,46,48,50,52,54,-1,56,58,60,62,-1,-1,64,66,68,70,72,74,76,-1,78,80,82,84,86,88,-1,-1,-1,-1,-1,-1,-1,-1,-1,-1,-1,-1,-1,-1,-1,-1,-1,-1,-1,-1,-1,-1,-1,-1,-1,-1,-1,-1,-1,-1,-1,-1,-1,-1,-1,-1,-1,-1,-1,-1],"split_conditions":[5.4272823E0,3.2718477E0,2.00001E0,2.00001E0,2.00001E0,-1.2838797E-1,5.584661E0,4E0,2.2E1,4.572647E0,2.2E1,2.00001E0,6.4595914E0,1.9657128E0,3.2449334E0,2.00001E0,2.824944E0,2.2E1,5.020652E0,1.2E1,4.001132E0,8.3252E4,2.00001E0,2.00001E0,2.00001E0,2.00001E0,3.2449334E0,3.2192757E0,-8.864164E-2,2.925846E0,2.9580305E0,2.00001E0,4.600001E1,-1.2748635E-1,-1.37242E-1,2.2E1,4E0,4E0,4.01998E0,3.893044E0,5.178914E0,1.77E2,-2.0354132E-1,1.05549E5,5.489805E0,4E0,2.2E1,2.00001E0,2.2E1,2.0996349E-1,1.3951604E-1,1.3285409E-1,1.7408082E-1,1.5682924E-1,1.7528076E-1,1.2887575E-1,-1.6990899E-1,-1.127091E-1,-2.4970753E-2,7.0427075E-2,-6.187367E-2,8.652808E-2,-2.6770404E-1,3.4517743E-2,1.2440232E-1,-1.8337493E-1,-1.356387E-1,-1.3676296E-1,-1.2767982E-1,-1.09891176E-1,-1.2612955E-1,-1.120699E-1,7.641127E-2,-1.445688E-1,3.887641E-2,-2.0515156E-1,1.3114662E-1,9.627751E-2,-1.584667E-2,-1.4524494E-1,-1.9221881E-1,1.2821953E-1,1.3307096E-1,-7.19738E-2,1.0558727E-1,-2.1962123E-1,1.2880625E-1,1.1838297E-1,1.254568E-1],"split_indices":[70,70,12,1,0,0,70,71,71,70,71,5,70,70,70,2,70,71,70,71,70,64,3,3,7,27,70,70,0,70,70,12,71,0,0,71,71,71,70,70,70,67,0,67,70,71,71,57,71,0,0,0,0,0,0,0,0,0,0,0,0,0,0,0,0,0,0,0,0,0,0,0,0,0,0,0,0,0,0,0,0,0,0,0,0,0,0,0,0],"split_type":[0,0,0,0,0,0,0,0,0,0,0,0,0,0,0,0,0,0,0,0,0,0,0,0,0,0,0,0,0,0,0,0,0,0,0,0,0,0,0,0,0,0,0,0,0,0,0,0,0,0,0,0,0,0,0,0,0,0,0,0,0,0,0,0,0,0,0,0,0,0,0,0,0,0,0,0,0,0,0,0,0,0,0,0,0,0,0,0,0],"sum_hessian":[2.4601345E5,1.5231564E5,9.369781E4,7.501503E4,7.730061E4,4.719037E2,9.322591E4,1.0492912E4,6.4522125E4,8.380072E3,6.892054E4,3.703596E3,8.952231E4,8.857402E3,1.6355098E3,4.3670883E4,2.0851238E4,4.0537222E3,4.3263506E3,6.006666E4,8.853879E3,1.7599594E3,1.9436366E3,3.4075703E4,5.5446605E4,7.97988E1,8.777604E3,1.633181E3,2.328737E0,2.3867056E3,4.128418E4,1.1932716E4,8.918523E3,3.3295515E3,7.2417053E2,4.0100747E3,3.1627585E2,3.323247E4,2.6834191E4,4.112493E3,4.7413853E3,1.7503408E3,9.618563E0,1.137012E3,8.066247E2,2.721986E4,6.855843E3,1.4358843E4,4.1087766E4,4.31885E1,3.6610302E1,8.733613E3,4.3989567E1,1.5452125E3,8.79685E1,2.1410925E3,2.45613E2,3.4662223E4,6.6219575E3,2.7238245E3,9.208891E3,8.797249E3,1.2127473E2,1.8696809E3,2.1403938E3,2.4185196E1,2.9209067E2,1.2117116E4,2.1115352E4,1.0121289E4,1.67129E4,2.2383848E3,1.8741085E3,3.880793E3,8.6059247E2,3.3531454E0,1.7469877E3,1.01223535E3,1.2477658E2,3.369355E2,4.696892E2,1.9055227E4,8.164634E3,3.4756943E3,3.3801482E3,1.6155936E0,1.4357227E4,1.2246066E4,2.8841697E4],"tree_param":{"num_deleted":"0","num_feature":"75","num_nodes":"89","size_leaf_vector":"1"}},{"base_weights":[4.012296E-3,-6.6346264E-1,1.0985942E0,-2.6735586E-1,-1.0554053E0,-1.2491377E-1,1.1102774E0,-1.0874801E0,1.1521802E-1,-2.9990673E-1,-1.147876E0,4.1052964E-1,1.1386044E0,-8.951687E-2,-1.1448556E0,-1.4225006E0,2.114584E-1,-1.2569994E-1,5.700922E-1,-6.875836E-1,-1.1906515E0,1.1739812E0,-2.616756E-1,3.542814E-1,1.150206E0,-1.0756816E0,3.6750558E-1,-1.2141262E0,-7.1985E-1,-1.406036E-1,-1.566548E-1,-1.4831853E0,3.0571112E-1,7.211274E-1,-1.3456094E-1,-1.4862928E-1,-1.2902878E-1,-5.9944063E-1,-1.2261465E0,-7.358115E-2,1.2563653E0,7.5149214E-1,-1.6232446E0,-1.3574904E-1,8.7915933E-1,1.0485057E0,1.2126362E0,1.01995945E-1,-1.4130557E-1,6.22763E-2,-1.3198711E-1,-7.266119E-2,-1.2798497E-1,5.109116E-2,-1.0486432E-1,-1.4636517E-1,-1.6341609E-1,-1.3777661E-1,4.124568E-2,1.21574454E-1,4.7375277E-2,-1.3085124E-1,1.1621884E-1,-1.321701E-2,-1.3368163E-1,-1.2518965E-1,-3.931692E-2,-2.4526174E-1,5.2388277E-2,-1.6189085E-1,1.2641922E-1,1.4757107E-1,-1.8493393E-2,-1.3944612E-1,-1.7808202E-1,1.12403885E-1,-1.4654535E-1,-1.9460472E-1,1.1078936E-1,1.2494937E-1,1.1991513E-1],"categories":[],"categories_nodes":[],"categories_segments":[],"categories_sizes":[],"default_left":[0,0,0,0,0,0,0,0,0,0,0,0,0,0,0,0,0,0,0,0,0,0,0,0,0,0,0,0,0,0,0,0,0,0,0,0,0,0,0,1,0,0,0,0,0,0,0,0,0,0,0,0,0,0,0,0,0,0,0,0,0,0,0,0,0,0,0,0,0,0,0,0,0,0,0,0,0,0,0,0,0],"id":10,"left_children":[1,3,5,7,9,-1,11,13,15,17,19,21,23,25,27,29,31,-1,33,35,37,39,41,43,45,47,49,51,53,-1,-1,55,57,59,-1,61,-1,63,65,67,69,71,73,-1,75,77,79,-1,-1,-1,-1,-1,-1,-1,-1,-1,-1,-1,-1,-1,-1,-1,-1,-1,-1,-1,-1,-1,-1,-1,-1,-1,-1,-1,-1,-1,-1,-1,-1,-1,-1],"loss_changes":[1.6929586E5,2.2347082E4,2.4090156E3,2.246291E4,5.054258E3,0E0,1.7308047E3,1.303877E3,7.2252344E3,6.5715444E3,1.2683672E3,1.7450586E3,7.6341406E2,5.5890533E2,6.3313086E2,4.617676E0,7.3390986E3,0E0,1.1972128E3,1.7810017E3,1.2369375E3,1.6371997E2,2.4963801E3,1.1018435E3,5.239375E2,2.790731E2,3.6586438E2,5.92334E2,1.222841E3,0E0,0E0,4.7470703E0,7.8222944E3,4.684037E2,0E0,4.404525E3,0E0,1.1514482E3,1.192875E3,1.4280354E2,3.565625E1,7.040431E2,2.5348145E1,0E0,5.402858E2,5.5990273E3,2.396875E1,0E0,0E0,0E0,0E0,0E0,0E0,0E0,0E0,0E0,0E0,0E0,0E0,0E0,0E0,0E0,0E0,0E0,0E0,0E0,0E0,0E0,0E0,0E0,0E0,0E0,0E0,0E0,0E0,0E0,0E0,0E0,0E0,0E0,0E0],"parents":[2147483647,0,0,1,1,2,2,3,3,4,4,6,6,7,7,8,8,9,9,10,10,11,11,12,12,13,13,14,14,15,15,16,16,18,18,19,19,20,20,21,21,22,22,23,23,24,24,25,25,26,26,27,27,28,28,31,31,32,32,33,33,35,35,37,37,38,38,39,39,40,40,41,41,42,42,44,44,45,45,46,46],"right_children":[2,4,6,8,10,-1,12,14,16,18,20,22,24,26,28,30,32,-1,34,36,38,40,42,44,46,48,50,52,54,-1,-1,56,58,60,-1,62,-1,64,66,68,70,72,74,-1,76,78,80,-1,-1,-1,-1,-1,-1,-1,-1,-1,-1,-1,-1,-1,-1,-1,-1,-1,-1,-1,-1,-1,-1,-1,-1,-1,-1,-1,-1,-1,-1,-1,-1,-1,-1],"split_conditions":[5.4272823E0,3.2718477E0,2.00001E0,2.0794415E0,2.00001E0,-1.2491377E-1,5.584661E0,2.00001E0,2.00001E0,4.572647E0,2.00001E0,2.00001E0,2.00001E0,3.93199E1,1.9851309E0,2.8587663E0,2.00001E0,-1.2569994E-1,5.020652E0,4.001132E0,2.00001E0,2.00001E0,2.00001E0,6.224974E0,6.4595914E0,2.00001E0,1.97E3,2.00001E0,2.00001E0,-1.406036E-1,-1.566548E-1,2.925846E0,2.00001E0,1.271E3,-1.3456094E-1,3.8707843E0,-1.2902878E-1,3.964046E0,5.310048E0,5E0,-1.2166554E2,2.00001E0,5.489805E0,-1.3574904E-1,2.501E3,2.00001E0,2.00001E0,1.01995945E-1,-1.4130557E-1,6.22763E-2,-1.3198711E-1,-7.266119E-2,-1.2798497E-1,5.109116E-2,-1.0486432E-1,-1.4636517E-1,-1.6341609E-1,-1.3777661E-1,4.124568E-2,1.21574454E-1,4.7375277E-2,-1.3085124E-1,1.1621884E-1,-1.321701E-2,-1.3368163E-1,-1.2518965E-1,-3.931692E-2,-2.4526174E-1,5.2388277E-2,-1.6189085E-1,1.2641922E-1,1.4757107E-1,-1.8493393E-2,-1.3944612E-1,-1.7808202E-1,1.12403885E-1,-1.4654535E-1,-1.9460472E-1,1.1078936E-1,1.2494937E-1,1.1991513E-1],"split_indices":[70,70,12,70,0,0,70,6,11,70,9,5,8,65,70,70,10,0,70,70,8,13,3,70,70,29,67,12,8,0,0,70,5,67,0,70,0,70,70,72,69,13,70,0,67,11,7,0,0,0,0,0,0,0,0,0,0,0,0,0,0,0,0,0,0,0,0,0,0,0,0,0,0,0,0,0,0,0,0,0,0],"split_type":[0,0,0,0,0,0,0,0,0,0,0,0,0,0,0,0,0,0,0,0,0,0,0,0,0,0,0,0,0,0,0,0,0,0,0,0,0,0,0,0,0,0,0,0,0,0,0,0,0,0,0,0,0,0,0,0,0,0,0,0,0,0,0,0,0,0,0,0,0,0,0,0,0,0,0,0,0,0,0,0,0],"sum_hessian":[2.317178E5,1.4394231E5,8.7775484E4,7.159168E4,7.2350625E4,4.3411697E2,8.734137E4,2.2772467E4,4.8819215E4,7.890278E3,6.4460348E4,3.3987751E3,8.394259E4,1.2382074E3,2.153426E4,2.8746458E3,4.594457E4,3.7568704E3,4.133407E3,5.482466E3,5.8977883E4,1.5910298E3,1.8077454E3,1.2240254E3,8.271857E4,3.9168167E2,8.4652576E2,1.8514732E4,3.019528E3,2.5894346E3,2.8521106E2,2.4199338E3,4.3524637E4,3.83192E3,3.014875E2,2.8949602E3,2.5875056E3,3.3413652E3,5.563652E4,9.856369E1,1.4924662E3,1.0367382E3,7.710072E2,2.8687158E2,9.3715375E2,3.147039E4,5.1248176E4,5.4031994E1,3.3764966E2,7.3584235E2,1.1068341E2,2.200941E3,1.6313791E4,6.3647534E2,2.3830527E3,2.1521743E3,2.677597E2,2.5945344E3,4.09301E4,1.276229E3,2.555691E3,1.5359073E3,1.359053E3,2.0460039E3,1.2953613E3,5.3967707E4,1.6688103E3,1.9161127E1,7.9402565E1,3.4928527E0,1.4889733E3,5.842848E2,4.524534E2,3.1847052E2,4.5253668E2,8.4900165E2,8.8152084E1,6.1136505E2,3.0859025E4,1.3703054E4,3.7545125E4],"tree_param":{"num_deleted":"0","num_feature":"75","num_nodes":"81","size_leaf_vector":"1"}},{"base_weights":[5.7188123E-3,-6.3022596E-1,1.0644201E0,-2.377367E-1,-1.019398E0,-1.2199906E-1,1.0757463E0,-1.1172363E0,9.7312175E-2,-2.834531E-1,-1.1118008E0,4.6269256E-1,1.1020789E0,-1.1611361E-1,-1.180132E0,-1.4173928E0,1.8036006E-1,-1.2345983E0,5.4518974E-1,-6.36931E-1,-1.1573789E0,1.1996298E0,-2.1388121E-1,2.5829637E-1,1.1143469E0,1.779665E-1,-1.2649111E-1,-8.834836E-1,-1.2195011E0,-1.3999571E-1,-1.5665917E-1,-1.3277948E0,2.6034194E-1,-1.5807976E-1,-1.2287753E-1,6.8281525E-1,-1.3017501E-1,-1.5214038E-1,-1.2560903E-1,-5.935714E-1,-1.1926566E0,-2.2114387E-1,1.2142407E0,7.2851145E-1,-1.5352465E0,-1.3117565E-1,7.665768E-1,1.0074819E0,1.1798584E0,-1.4304663E-1,4.3672524E-2,1.27511015E-2,-1.2374709E-1,-1.2676346E-1,-8.3642684E-2,-1.2898393E-1,-1.38835E-1,-1.4796291E-1,3.401045E-2,-6.747938E-3,9.208733E-2,-1.10665895E-1,1.04173936E-1,-1.3313934E-1,-7.3881964E-3,-1.2201935E-1,-3.6639817E-2,1.1818295E-1,2.3509906E-1,1.4178105E-1,-1.5499758E-2,-1.34245E-1,-1.6644913E-1,1.0134424E-1,-1.4121227E-1,1.2342755E-1,1.6812032E-2,1.2145435E-1,1.167526E-1],"categories":[],"categories_nodes":[],"categories_segments":[],"categories_sizes":[],"default_left":[0,0,0,0,0,0,0,0,0,0,0,0,0,0,0,0,0,0,0,0,0,0,0,0,0,0,0,0,0,0,0,0,0,0,0,0,0,0,0,0,0,0,0,0,0,0,0,0,0,0,0,0,0,0,0,0,0,0,0,0,0,0,0,0,0,0,0,0,0,0,0,0,0,0,0,0,0,0,0],"id":11,"left_children":[1,3,5,7,9,-1,11,13,15,17,19,21,23,25,27,29,31,33,35,37,39,41,43,45,47,49,-1,51,53,-1,-1,55,57,-1,-1,59,-1,61,-1,63,65,-1,67,69,71,-1,73,75,77,-1,-1,-1,-1,-1,-1,-1,-1,-1,-1,-1,-1,-1,-1,-1,-1,-1,-1,-1,-1,-1,-1,-1,-1,-1,-1,-1,-1,-1,-1],"loss_changes":[1.4803356E5,2.0981E4,2.1361719E3,2.0152975E4,4.6899688E3,0E0,1.3249141E3,1.1878086E3,6.2301196E3,6.065687E3,1.3255312E3,1.6870417E3,8.1458594E2,3.7736398E2,2.0623438E2,4.503418E0,5.6638613E3,5.2802734E0,1.046382E3,1.6112532E3,1.1113203E3,8.339673E1,2.1985186E3,9.0233246E2,5.4203125E2,3.7090643E2,0E0,7.4576733E2,2.8784766E2,0E0,0E0,3.6445312E0,6.188583E3,0E0,0E0,6.838882E2,0E0,3.4337349E3,0E0,1.2630574E3,1.1967188E3,0E0,5.6657227E1,6.279193E2,1.6078491E1,0E0,4.6067438E2,5.6147227E3,1.915625E1,0E0,0E0,0E0,0E0,0E0,0E0,0E0,0E0,0E0,0E0,0E0,0E0,0E0,0E0,0E0,0E0,0E0,0E0,0E0,0E0,0E0,0E0,0E0,0E0,0E0,0E0,0E0,0E0,0E0,0E0],"parents":[2147483647,0,0,1,1,2,2,3,3,4,4,6,6,7,7,8,8,9,9,10,10,11,11,12,12,13,13,14,14,15,15,16,16,17,17,18,18,19,19,20,20,21,21,22,22,23,23,24,24,25,25,27,27,28,28,31,31,32,32,35,35,37,37,39,39,40,40,42,42,43,43,44,44,46,46,47,47,48,48],"right_children":[2,4,6,8,10,-1,12,14,16,18,20,22,24,26,28,30,32,34,36,38,40,42,44,46,48,50,-1,52,54,-1,-1,56,58,-1,-1,60,-1,62,-1,64,66,-1,68,70,72,-1,74,76,78,-1,-1,-1,-1,-1,-1,-1,-1,-1,-1,-1,-1,-1,-1,-1,-1,-1,-1,-1,-1,-1,-1,-1,-1,-1,-1,-1,-1,-1,-1],"split_conditions":[5.4272823E0,3.2192757E0,2.00001E0,2.004179E0,2.00001E0,-1.2199906E-1,5.584661E0,2.00001E0,2.00001E0,4.572647E0,2.00001E0,2.00001E0,2.00001E0,1.97E3,2.00001E0,2.8587663E0,2.00001E0,3.2449334E0,5.020652E0,4.01998E0,2.00001E0,2.00001E0,2.00001E0,6.224974E0,6.4595914E0,1.2441546E0,-1.2649111E-1,1.9149E4,1.9242487E0,-1.3999571E-1,-1.5665917E-1,2.925846E0,2.00001E0,-1.5807976E-1,-1.2287753E-1,2.00001E0,-1.3017501E-1,3.8707843E0,-1.2560903E-1,3.9130225E0,5.310048E0,-2.2114387E-1,4.813042E1,2.00001E0,5.489805E0,-1.3117565E-1,2.501E3,2.00001E0,2.00001E0,-1.4304663E-1,4.3672524E-2,1.27511015E-2,-1.2374709E-1,-1.2676346E-1,-8.3642684E-2,-1.2898393E-1,-1.38835E-1,-1.4796291E-1,3.401045E-2,-6.747938E-3,9.208733E-2,-1.10665895E-1,1.04173936E-1,-1.3313934E-1,-7.3881964E-3,-1.2201935E-1,-3.6639817E-2,1.1818295E-1,2.3509906E-1,1.4178105E-1,-1.5499758E-2,-1.34245E-1,-1.6644913E-1,1.0134424E-1,-1.4121227E-1,1.2342755E-1,1.6812032E-2,1.2145435E-1,1.167526E-1],"split_indices":[70,70,12,70,0,0,70,6,10,70,9,5,8,67,12,70,5,70,70,70,8,51,3,70,70,70,0,64,70,0,0,70,0,0,0,13,0,70,0,70,70,0,68,13,70,0,67,3,7,0,0,0,0,0,0,0,0,0,0,0,0,0,0,0,0,0,0,0,0,0,0,0,0,0,0,0,0,0,0],"split_type":[0,0,0,0,0,0,0,0,0,0,0,0,0,0,0,0,0,0,0,0,0,0,0,0,0,0,0,0,0,0,0,0,0,0,0,0,0,0,0,0,0,0,0,0,0,0,0,0,0,0,0,0,0,0,0,0,0,0,0,0,0,0,0,0,0,0,0,0,0,0,0,0,0,0,0,0,0,0,0],"sum_hessian":[2.1986869E5,1.3735947E5,8.250922E4,6.838906E4,6.897041E4,4.0654294E2,8.210268E4,1.8865363E4,4.9523703E4,7.6941587E3,6.127625E4,3.3820945E3,7.8720586E4,1.115329E3,1.7750035E4,2.5733047E3,4.69504E4,3.5820576E3,4.1121006E3,5.367573E3,5.5908676E4,1.6184615E3,1.7636328E3,1.1284438E3,7.759214E4,8.8868097E2,2.2664793E2,2.0824114E3,1.5667623E4,2.313344E3,2.5996072E2,2.3637344E3,4.4586664E4,5.4779087E1,3.5272786E3,3.8275215E3,2.8457922E2,3.0111455E3,2.3564277E3,3.2932869E3,5.261539E4,6.261592E0,1.6122E3,1.029702E3,7.3393085E2,2.755874E2,8.5285645E2,2.9495094E4,4.8097047E4,1.2252747E2,7.661535E2,5.4020764E2,1.5422039E3,1.3916676E4,1.7509476E3,1.4667083E3,8.9702606E2,1.9535536E3,4.263311E4,9.220825E2,2.905439E3,1.673355E3,1.3377905E3,1.3603652E3,1.9329216E3,5.091796E4,1.6974275E3,1.5694901E3,4.2709885E1,5.7808496E2,4.51617E2,2.9911813E2,4.3481268E2,7.665361E2,8.6320366E1,2.3220498E4,6.2745947E3,1.2590056E4,3.5506992E4],"tree_param":{"num_deleted":"0","num_feature":"75","num_nodes":"79","size_leaf_vector":"1"}},{"base_weights":[-2.5294244E-3,-5.9655035E-1,1.0278851E0,-2.3117346E-1,-1.0001135E0,3.6246362E-1,1.054881E0,-1.0408193E0,5.390293E-2,-1.1187862E0,-3.622352E-1,1.1238468E0,-2.9624444E-1,9.332712E-1,1.1534525E0,1.48827E-1,-1.1262286E0,8.181382E-1,-2.068343E-1,-5.704264E-1,-1.1758428E0,-1.2964089E0,-1.5977341E-1,1.148769E0,-1.8545513E-1,6.2231666E-1,-1.4676338E0,1.2149777E0,7.0378417E-1,4.0294418E-1,1.1574247E0,-9.0014005E-1,9.261792E-1,-1.1622117E0,-8.4324425E-1,-1.8395865E0,9.34428E-1,-5.7074714E-1,3.9288718E-1,-1.1895515E-1,1.16869956E-1,-9.727019E-1,-1.1896842E0,1.4586654E-1,-1.3852234E0,7.4076426E-1,-4.3391144E-1,-2.4723075E-1,1.1624433E0,1.3962055E0,-3.6245304E-1,-1.3055241E0,-1.5740738E0,1.1964313E-1,1.2733653E0,-1.8705304E0,9.343212E-1,9.0292084E-1,-1.4032866E-1,-2.1895467E-1,1.1581682E0,1.4056914E-1,-1.2349613E-1,1.1019232E-1,-1.3580637E-1,-1.5030739E-2,-1.1717319E-1,2.1191781E-2,-1.1603866E-1,-1.5985474E-1,-2.5151247E-1,-1.5015881E-1,1.0321237E-1,-8.323417E-3,-7.103284E-2,-1.1565353E-2,8.1073344E-2,8.4692284E-2,-4.6354186E-2,8.505865E-2,-1.07890524E-1,-9.486936E-2,-1.1972266E-1,1.8457888E-1,-1.3709469E-1,-1.713535E-1,-1.3047916E-1,1.0624987E-1,-1.5492563E-1,6.5473236E-2,-9.246393E-2,-2.0666145E-1,1.1713699E-1,1.9181298E-1,1.2067689E-1,4.5032535E-2,-1.8817005E-1,-1.2553802E-1,-1.5555264E-1,-1.1471248E-1,-1.6182104E-1,1.2861529E-1,1.2093458E-1,8.916427E-3,-2.1096578E-1,-5.7453164E-3,1.0654389E-1,-1.4187966E-1,1.1108259E-1,-1.8691011E-1,1.1588974E-1],"categories":[],"categories_nodes":[],"categories_segments":[],"categories_sizes":[],"default_left":[0,0,0,0,1,0,0,0,1,0,0,0,0,0,0,0,0,0,0,0,0,0,0,0,0,0,0,0,0,0,0,0,0,0,1,0,0,0,0,0,1,0,0,0,0,0,0,0,0,0,0,1,0,0,0,0,0,0,0,0,0,0,0,0,0,0,0,0,0,0,0,0,0,0,0,0,0,0,0,0,0,0,0,0,0,0,0,0,0,0,0,0,0,0,0,0,0,0,0,0,0,0,0,0,0,0,0,0,0,0,0],"id":12,"left_children":[1,3,5,7,9,11,13,15,17,19,21,23,25,27,29,31,33,35,37,39,41,43,45,47,-1,49,51,53,55,57,59,61,63,65,67,69,71,73,75,-1,77,79,81,83,85,87,89,-1,91,93,95,97,99,-1,101,103,105,107,-1,-1,109,-1,-1,-1,-1,-1,-1,-1,-1,-1,-1,-1,-1,-1,-1,-1,-1,-1,-1,-1,-1,-1,-1,-1,-1,-1,-1,-1,-1,-1,-1,-1,-1,-1,-1,-1,-1,-1,-1,-1,-1,-1,-1,-1,-1,-1,-1,-1,-1,-1,-1],"loss_changes":[1.26496695E5,1.9329574E4,1.3571797E3,1.5880352E4,4.7149062E3,1.4788154E3,8.695078E2,1.8206387E3,1.0140021E4,1.6425234E3,1.8480852E3,1.0364636E2,1.7024202E3,2.1014082E3,1.1910156E2,9.8017883E2,1.6923828E2,4.0025537E3,8.281027E3,2.1071216E3,1.3258594E2,2.2315796E2,1.983397E3,7.0060425E1,0E0,6.7650635E2,9.942505E0,1.4285156E1,1.06383545E4,1.933471E2,1.0181641E2,3.9680087E2,2.7862067E2,1.4267383E2,6.325348E2,8.4397095E1,2.9532979E3,1.6068208E3,3.0449785E3,0E0,9.9509393E2,5.895613E2,7.980078E1,2.651974E2,4.10625E1,1.3831172E3,3.2908103E3,0E0,4.1404785E1,4.6814392E1,4.8381027E2,1.575531E0,5.961548E0,0E0,1.3125E0,6.906621E2,2.1392256E3,8.2279495E1,0E0,0E0,9.021094E1,0E0,0E0,0E0,0E0,0E0,0E0,0E0,0E0,0E0,0E0,0E0,0E0,0E0,0E0,0E0,0E0,0E0,0E0,0E0,0E0,0E0,0E0,0E0,0E0,0E0,0E0,0E0,0E0,0E0,0E0,0E0,0E0,0E0,0E0,0E0,0E0,0E0,0E0,0E0,0E0,0E0,0E0,0E0,0E0,0E0,0E0,0E0,0E0,0E0,0E0],"parents":[2147483647,0,0,1,1,2,2,3,3,4,4,5,5,6,6,7,7,8,8,9,9,10,10,11,11,12,12,13,13,14,14,15,15,16,16,17,17,18,18,19,19,20,20,21,21,22,22,23,23,25,25,26,26,27,27,28,28,29,29,30,30,31,31,32,32,33,33,34,34,35,35,36,36,37,37,38,38,40,40,41,41,42,42,43,43,44,44,45,45,46,46,48,48,49,49,50,50,51,51,52,52,54,54,55,55,56,56,57,57,60,60],"right_children":[2,4,6,8,10,12,14,16,18,20,22,24,26,28,30,32,34,36,38,40,42,44,46,48,-1,50,52,54,56,58,60,62,64,66,68,70,72,74,76,-1,78,80,82,84,86,88,90,-1,92,94,96,98,100,-1,102,104,106,108,-1,-1,110,-1,-1,-1,-1,-1,-1,-1,-1,-1,-1,-1,-1,-1,-1,-1,-1,-1,-1,-1,-1,-1,-1,-1,-1,-1,-1,-1,-1,-1,-1,-1,-1,-1,-1,-1,-1,-1,-1,-1,-1,-1,-1,-1,-1,-1,-1,-1,-1,-1,-1],"split_conditions":[5.4272823E0,3.3196256E0,5.584661E0,2.004179E0,2.2E1,2.00001E0,2.2E1,2.00001E0,4E0,2.00001E0,3.8707843E0,8.3252E4,2.00001E0,2.00001E0,2.00001E0,2.2E1,1.9242487E0,2.00001E0,2.2E1,4.572647E0,2.00001E0,1.23E2,3.9736824E0,1.0548E4,-1.8545513E-1,2.00001E0,5.489805E0,4E0,6.0541344E0,1.36E3,2.00001E0,2.00001E0,1.97E3,2.00001E0,4E0,4E0,2.00001E0,1.1E1,2.8925915E0,-1.1895515E-1,8E0,2.00001E0,2.00001E0,2.00001E0,2.00001E0,2.501E3,2.00001E0,-2.4723075E-1,1.37E2,5.489805E0,4E0,2.2E1,2.00001E0,1.1964313E-1,1.2E1,2.00001E0,6.4595914E0,4.600001E1,-1.4032866E-1,-2.1895467E-1,2.00001E0,1.4056914E-1,-1.2349613E-1,1.1019232E-1,-1.3580637E-1,-1.5030739E-2,-1.1717319E-1,2.1191781E-2,-1.1603866E-1,-1.5985474E-1,-2.5151247E-1,-1.5015881E-1,1.0321237E-1,-8.323417E-3,-7.103284E-2,-1.1565353E-2,8.1073344E-2,8.4692284E-2,-4.6354186E-2,8.505865E-2,-1.07890524E-1,-9.486936E-2,-1.1972266E-1,1.8457888E-1,-1.3709469E-1,-1.713535E-1,-1.3047916E-1,1.0624987E-1,-1.5492563E-1,6.5473236E-2,-9.246393E-2,-2.0666145E-1,1.1713699E-1,1.9181298E-1,1.2067689E-1,4.5032535E-2,-1.8817005E-1,-1.2553802E-1,-1.5555264E-1,-1.1471248E-1,-1.6182104E-1,1.2861529E-1,1.2093458E-1,8.916427E-3,-2.1096578E-1,-5.7453164E-3,1.0654389E-1,-1.4187966E-1,1.1108259E-1,-1.8691011E-1,1.1588974E-1],"split_indices":[70,70,70,70,71,5,71,6,71,0,70,64,3,3,8,71,70,7,71,70,9,67,70,64,0,13,70,71,70,67,9,47,67,19,71,71,11,71,70,0,71,48,37,48,9,67,0,0,67,70,72,71,8,0,71,5,70,71,0,0,6,0,0,0,0,0,0,0,0,0,0,0,0,0,0,0,0,0,0,0,0,0,0,0,0,0,0,0,0,0,0,0,0,0,0,0,0,0,0,0,0,0,0,0,0,0,0,0,0,0,0],"split_type":[0,0,0,0,0,0,0,0,0,0,0,0,0,0,0,0,0,0,0,0,0,0,0,0,0,0,0,0,0,0,0,0,0,0,0,0,0,0,0,0,0,0,0,0,0,0,0,0,0,0,0,0,0,0,0,0,0,0,0,0,0,0,0,0,0,0,0,0,0,0,0,0,0,0,0,0,0,0,0,0,0,0,0,0,0,0,0,0,0,0,0,0,0,0,0,0,0,0,0,0,0,0,0,0,0,0,0,0,0,0,0],"sum_hessian":[2.0666231E5,1.3109064E5,7.557167E4,6.880119E4,6.2289453E4,2.946949E3,7.262473E4,1.7915812E4,5.0885375E4,5.2518082E4,9.771371E3,1.3666122E3,1.5803368E3,3.2517584E4,4.010714E4,1.2000363E3,1.6715775E4,1.2943912E4,3.794146E4,4.9505205E3,4.756756E4,1.7395509E3,8.0318203E3,1.3558809E3,1.0731281E1,8.8602045E2,6.9431635E2,1.4595994E4,1.792159E4,2.11696E2,3.9895445E4,5.1071466E2,6.893216E2,1.4827296E4,1.8884797E3,5.4200214E2,1.240191E4,2.3613043E4,1.4328419E4,2.6040393E3,2.3464814E3,3.0388965E3,4.4528664E4,1.0086948E2,1.6386814E3,1.8740157E3,6.157804E3,4.424511E0,1.3514564E3,4.9589764E2,3.9012277E2,2.804507E2,4.1386566E2,1.1093633E4,3.5023613E3,1.472431E3,1.644916E4,1.6619283E2,4.550317E1,8.206618E0,3.988724E4,6.435048E1,4.4636417E2,6.4055634E2,4.8765247E1,1.3835475E2,1.4688941E4,4.3650812E2,1.4519716E3,4.0194882E2,1.400533E2,4.7764313E2,1.1924268E4,5.256244E3,1.8356799E4,6.463151E3,7.8652676E3,1.0390658E3,1.3074156E3,1.668816E2,2.872015E3,1.3551843E3,4.317348E4,4.746153E1,5.3407944E1,3.1846146E2,1.32022E3,1.6436313E3,2.303845E2,1.9131925E3,4.244612E3,3.0902596E0,1.3483661E3,1.2962833E2,3.6626932E2,2.5461209E2,1.355107E2,2.386127E2,4.183801E1,4.130433E1,3.725613E2,2.9033386E3,5.9902264E2,1.601987E2,1.3122324E3,1.9207974E3,1.4528362E4,1.3180401E1,1.5301242E2,8.98761E0,3.987825E4],"tree_param":{"num_deleted":"0","num_feature":"75","num_nodes":"111","size_leaf_vector":"1"}},{"base_weights":[-7.6219474E-4,-5.634431E-1,1.0103351E0,-2.0210007E-1,-9.323412E-1,-1.2002466E-1,1.0222828E0,-1.0484581E0,9.694975E-2,-1.062647E0,-2.8892624E-1,8.930324E-1,1.1279333E0,-1.0723492E-1,-1.1087421E0,7.904778E-1,-1.5081683E-1,-6.0296065E-1,-1.1108549E0,-4.2408597E-1,8.6060876E-1,1.1779974E0,6.586721E-1,3.8351008E-1,1.1324971E0,-8.660086E-1,6.168783E-1,-7.05045E-1,-1.1654723E0,-1.7097418E0,9.005321E-1,-5.151535E-1,4.559174E-1,-1.177324E0,4.3421708E-2,-1.1234244E0,-1.4585614E-1,2.4904427E-1,-5.958561E-1,-1.815634E-1,1.0454468E0,7.8817284E-1,1.1904693E0,-1.357466E0,9.308492E-1,-1.3115321E-1,8.9744884E-1,-1.8350638E-1,1.1335642E0,8.281564E-2,-1.2123567E-1,-1.7424004E-1,7.9310216E-2,-1.06679395E-1,3.4638636E-2,-1.2111268E-1,-8.162099E-2,-1.5162198E-1,-2.1967559E-1,-1.4346509E-1,9.92519E-2,6.2297523E-2,-7.079543E-2,-1.5319653E-1,5.4064095E-2,-1.3724527E-1,-1.1695683E-1,8.073931E-2,-4.2016756E-2,-7.348279E-2,-1.14487074E-1,1.2031584E-1,-4.519577E-2,-1.2962304E-1,9.2213325E-2,-9.16303E-3,-1.2170917E-1,-1.6508235E-1,1.1011169E-1,1.1904129E-1,3.3091005E-2,1.1742138E-1,1.2380233E-1,-2.68402E-1,-1.1436235E-1,2.5025306E-3,1.036703E-1,-1.3515148E-1,1.0713762E-1,-1.7302011E-1,1.1346085E-1],"categories":[],"categories_nodes":[],"categories_segments":[],"categories_sizes":[],"default_left":[0,0,0,0,1,0,0,0,1,0,0,0,0,0,0,0,0,0,0,0,0,0,0,0,0,0,0,0,0,0,0,0,0,0,1,0,0,0,0,0,0,0,0,0,0,0,0,0,0,0,0,0,0,0,0,0,0,0,0,0,0,0,0,0,0,0,0,0,0,0,0,0,0,0,0,0,0,0,0,0,0,0,0,0,0,0,0,0,0,0,0],"id":13,"left_children":[1,3,5,7,9,-1,11,13,15,17,19,21,23,25,27,29,31,33,35,37,39,41,43,45,47,49,51,53,55,57,59,61,63,65,67,69,71,73,75,-1,77,79,81,83,85,-1,87,-1,89,-1,-1,-1,-1,-1,-1,-1,-1,-1,-1,-1,-1,-1,-1,-1,-1,-1,-1,-1,-1,-1,-1,-1,-1,-1,-1,-1,-1,-1,-1,-1,-1,-1,-1,-1,-1,-1,-1,-1,-1,-1,-1],"loss_changes":[1.1063089E5,1.6652973E4,1.8374766E3,1.5974231E4,5.1826406E3,0E0,9.4328906E2,9.3485547E2,8.0137397E3,1.1385469E3,1.618178E3,2.0766758E3,1.2882031E2,5.461123E2,3.5383594E2,3.379311E3,7.5960176E3,1.812399E3,5.641797E2,1.077504E3,5.43966E2,6.730664E1,9.369061E3,2.0444684E2,1.2183594E2,2.8576318E2,2.1286967E2,7.2707245E2,2.1549414E2,4.5481445E1,2.5272764E3,4.7116055E3,2.1722083E3,2.3061523E0,8.141429E2,3.819336E2,2.4805267E2,1.9722301E3,2.3253254E3,0E0,1.5577026E2,8.018851E1,9.058594E0,5.730427E2,1.4422139E3,0E0,7.171597E1,0E0,1.1500391E2,0E0,0E0,0E0,0E0,0E0,0E0,0E0,0E0,0E0,0E0,0E0,0E0,0E0,0E0,0E0,0E0,0E0,0E0,0E0,0E0,0E0,0E0,0E0,0E0,0E0,0E0,0E0,0E0,0E0,0E0,0E0,0E0,0E0,0E0,0E0,0E0,0E0,0E0,0E0,0E0,0E0,0E0],"parents":[2147483647,0,0,1,1,2,2,3,3,4,4,6,6,7,7,8,8,9,9,10,10,11,11,12,12,13,13,14,14,15,15,16,16,17,17,18,18,19,19,20,20,21,21,22,22,23,23,24,24,25,25,26,26,27,27,28,28,29,29,30,30,31,31,32,32,33,33,34,34,35,35,36,36,37,37,38,38,40,40,41,41,42,42,43,43,44,44,46,46,48,48],"right_children":[2,4,6,8,10,-1,12,14,16,18,20,22,24,26,28,30,32,34,36,38,40,42,44,46,48,50,52,54,56,58,60,62,64,66,68,70,72,74,76,-1,78,80,82,84,86,-1,88,-1,90,-1,-1,-1,-1,-1,-1,-1,-1,-1,-1,-1,-1,-1,-1,-1,-1,-1,-1,-1,-1,-1,-1,-1,-1,-1,-1,-1,-1,-1,-1,-1,-1,-1,-1,-1,-1,-1,-1,-1,-1,-1,-1],"split_conditions":[5.489805E0,3.1929424E0,2.00001E0,2.004179E0,2.2E1,-1.2002466E-1,2.2E1,2.00001E0,4E0,2.00001E0,5.278064E0,2.00001E0,2.00001E0,2.2E1,2.00001E0,2.00001E0,2.8925915E0,4.572647E0,5.4272823E0,2.00001E0,2.00001E0,5.584661E0,6.0541344E0,6.4595914E0,2.00001E0,1.3361E4,1.2089603E0,4.28112E1,1.9242487E0,4E0,2.00001E0,2.00001E0,2.00001E0,3.2449334E0,6E0,2.00001E0,1.1217E4,4.572647E0,3.9821086E0,-1.815634E-1,2.00001E0,2.00001E0,4E0,2.00001E0,6.4595914E0,-1.3115321E-1,4.600001E1,-1.8350638E-1,2.00001E0,8.281564E-2,-1.2123567E-1,-1.7424004E-1,7.9310216E-2,-1.06679395E-1,3.4638636E-2,-1.2111268E-1,-8.162099E-2,-1.5162198E-1,-2.1967559E-1,-1.4346509E-1,9.92519E-2,6.2297523E-2,-7.079543E-2,-1.5319653E-1,5.4064095E-2,-1.3724527E-1,-1.1695683E-1,8.073931E-2,-4.2016756E-2,-7.348279E-2,-1.14487074E-1,1.2031584E-1,-4.519577E-2,-1.2962304E-1,9.2213325E-2,-9.16303E-3,-1.2170917E-1,-1.6508235E-1,1.1011169E-1,1.1904129E-1,3.3091005E-2,1.1742138E-1,1.2380233E-1,-2.68402E-1,-1.1436235E-1,2.5025306E-3,1.036703E-1,-1.3515148E-1,1.0713762E-1,-1.7302011E-1,1.1346085E-1],"split_indices":[70,70,12,70,71,0,71,6,71,0,70,3,8,71,12,7,70,70,70,0,13,70,70,70,9,64,70,65,70,71,11,8,0,70,71,8,64,70,70,0,11,13,71,7,70,0,71,0,0,0,0,0,0,0,0,0,0,0,0,0,0,0,0,0,0,0,0,0,0,0,0,0,0,0,0,0,0,0,0,0,0,0,0,0,0,0,0,0,0,0,0],"split_type":[0,0,0,0,0,0,0,0,0,0,0,0,0,0,0,0,0,0,0,0,0,0,0,0,0,0,0,0,0,0,0,0,0,0,0,0,0,0,0,0,0,0,0,0,0,0,0,0,0,0,0,0,0,0,0,0,0,0,0,0,0,0,0,0,0,0,0,0,0,0,0,0,0,0,0,0,0,0,0,0,0,0,0,0,0,0,0,0,0,0,0],"sum_hessian":[1.9445395E5,1.24930125E5,6.952383E4,6.3112105E4,6.181802E4,3.7320825E2,6.915062E4,1.6477025E4,4.663508E4,5.140643E4,1.0411593E4,3.110583E4,3.8044785E4,9.9197473E2,1.5485051E4,1.227466E4,3.4360418E4,4.880635E3,4.6525793E4,9.316778E3,1.0948146E3,1.4035573E4,1.7070258E4,2.3233563E2,3.781245E4,4.8429865E2,5.076761E2,1.9095956E3,1.3575455E4,5.169112E2,1.1757749E4,2.1468807E4,1.2891613E4,2.583851E3,2.2967837E3,4.5927406E4,5.9838885E2,1.8940303E3,7.422748E3,7.015966E1,1.0246549E3,4.3711584E2,1.3598457E4,2.029899E3,1.5040358E4,5.3693855E1,1.7864178E2,1.2975667E1,3.7799473E4,8.196669E1,4.0233194E2,3.4667076E1,4.73009E2,1.4207625E3,4.888332E2,1.2003874E4,1.5715817E3,3.7286227E2,1.4404889E2,4.4505176E2,1.1312697E4,3.1096855E3,1.8359121E4,5.262823E2,1.2365331E4,9.204705E1,2.4918042E3,8.671021E2,1.4296814E3,2.4039675E3,4.3523438E4,1.10125626E2,4.8826324E2,5.7439984E2,1.3196304E3,4.0978643E3,3.3248835E3,2.0148521E1,1.00450635E3,2.3169635E2,2.054195E2,1.01533955E4,3.4450613E3,2.8019305E2,1.7497059E3,1.5738308E3,1.3466527E4,1.2337781E1,1.66304E2,1.3174465E1,3.77863E4],"tree_param":{"num_deleted":"0","num_feature":"75","num_nodes":"91","size_leaf_vector":"1"}},{"base_weights":[9.783836E-3,-5.2891386E-1,9.755756E-1,-1.6303565E-1,-9.480858E-1,-1.17838204E-1,9.868326E-1,-9.7502285E-1,1.0112174E-1,-1.0701654E0,-3.4506404E-1,8.441912E-1,1.1050215E0,1.1534748E-2,-1.0458925E0,-1.3367347E0,1.9543757E-1,-1.1242903E0,-8.8723844E-1,-1.2859718E0,-2.1589765E-1,1.1339839E0,6.217525E-1,-1.6307484E-1,1.1065967E0,-8.355077E-1,6.9165623E-1,-5.0681716E-1,-1.1269165E0,-1.2694818E0,-1.7354743E0,-1.3676599E0,2.8092536E-1,-8.038135E-1,-1.1402639E0,-1.1850024E0,-7.2965467E-1,-2.1569958E-1,-1.2724577E0,-4.5323703E-1,2.3639426E-1,-1.3851175E-1,1.1558677E0,-1.0633457E0,9.0076107E-1,-1.8732537E0,1.1080027E0,1.0190272E-1,-1.1870738E-1,8.83076E-2,-1.3343756E-1,1.830677E-2,-1.2675582E-1,-1.1874179E-1,-6.987921E-2,-1.3759768E-1,-1.247068E-1,-1.6825818E-1,-2.3797463E-1,-1.2700082E-1,-1.7690307E-1,9.018334E-2,6.7892047E-3,-1.2134732E-1,2.844037E-2,-1.1441022E-1,-8.950811E-2,-1.2154062E-1,-1.1660194E-1,-4.001517E-2,-1.007694E-1,-1.3205554E-1,-1.223274E-1,-3.1348155E-3,-1.1732768E-1,-1.3312185E-1,3.1032894E-2,1.7930958E-1,-1.377679E-1,7.8724116E-2,1.16946794E-1,-4.0252823E-2,-1.4531572E-1,1.9525765E-2,1.0019594E-1,-1.2778509E-1,-2.3052774E-1,2.0596093E-2,1.1122999E-1],"categories":[],"categories_nodes":[],"categories_segments":[],"categories_sizes":[],"default_left":[0,0,0,0,1,0,0,0,0,0,0,0,0,0,0,1,0,0,0,0,0,0,0,0,0,0,0,0,0,1,0,0,1,1,0,1,0,0,0,0,0,0,0,0,0,0,0,0,0,0,0,0,0,0,0,0,0,0,0,0,0,0,0,0,0,0,0,0,0,0,0,0,0,0,0,0,0,0,0,0,0,0,0,0,0,0,0,0,0],"id":14,"left_children":[1,3,5,7,9,-1,11,13,15,17,19,21,23,25,27,29,31,33,35,37,39,41,43,-1,45,47,49,51,53,55,57,59,61,63,65,67,69,-1,71,73,75,77,79,81,83,85,87,-1,-1,-1,-1,-1,-1,-1,-1,-1,-1,-1,-1,-1,-1,-1,-1,-1,-1,-1,-1,-1,-1,-1,-1,-1,-1,-1,-1,-1,-1,-1,-1,-1,-1,-1,-1,-1,-1,-1,-1,-1,-1],"loss_changes":[9.621403E4,1.8206613E4,1.6067227E3,1.3596351E4,4.072664E3,0E0,1.1095859E3,1.0879023E3,6.4865186E3,4.545664E2,1.1319965E3,1.9236426E3,1.5703516E2,6.0191125E2,6.3349805E2,7.675391E1,5.998304E3,1.8082422E2,4.9231445E2,1.04904785E1,8.796168E2,3.611289E2,7.942535E3,0E0,1.5290234E2,3.0459134E2,2.2592139E2,9.966825E2,3.2603613E2,4.3063965E0,1.0383667E1,8.898828E1,5.6294204E3,7.532738E2,3.0796875E1,6.8115234E-1,6.2950903E2,0E0,1.0097656E0,1.632399E3,3.2729663E2,5.291751E2,6.2966797E1,6.1762427E2,1.0345E3,1.5168457E0,1.3925E2,0E0,0E0,0E0,0E0,0E0,0E0,0E0,0E0,0E0,0E0,0E0,0E0,0E0,0E0,0E0,0E0,0E0,0E0,0E0,0E0,0E0,0E0,0E0,0E0,0E0,0E0,0E0,0E0,0E0,0E0,0E0,0E0,0E0,0E0,0E0,0E0,0E0,0E0,0E0,0E0,0E0,0E0],"parents":[2147483647,0,0,1,1,2,2,3,3,4,4,6,6,7,7,8,8,9,9,10,10,11,11,12,12,13,13,14,14,15,15,16,16,17,17,18,18,19,19,20,20,21,21,22,22,24,24,25,25,26,26,27,27,28,28,29,29,30,30,31,31,32,32,33,33,34,34,35,35,36,36,38,38,39,39,40,40,41,41,42,42,43,43,44,44,45,45,46,46],"right_children":[2,4,6,8,10,-1,12,14,16,18,20,22,24,26,28,30,32,34,36,38,40,42,44,-1,46,48,50,52,54,56,58,60,62,64,66,68,70,-1,72,74,76,78,80,82,84,86,88,-1,-1,-1,-1,-1,-1,-1,-1,-1,-1,-1,-1,-1,-1,-1,-1,-1,-1,-1,-1,-1,-1,-1,-1,-1,-1,-1,-1,-1,-1,-1,-1,-1,-1,-1,-1,-1,-1,-1,-1,-1,-1],"split_conditions":[5.4272823E0,3.2449334E0,2.00001E0,2.004179E0,2.2E1,-1.17838204E-1,2.2E1,2.00001E0,2.00001E0,4.693364E0,2.00001E0,2.00001E0,2.00001E0,2.2E1,2.00001E0,2.2E1,2.00001E0,2.00001E0,2.00001E0,3.2718477E0,4.6666417E0,5.489805E0,6.0541344E0,-1.6307484E-1,2.00001E0,2.00001E0,1.923E3,2.208E3,1.9242487E0,4E0,2.8587663E0,2.2E1,4E0,1.2E1,1.38248E6,4E0,4.880982E0,-2.1569958E-1,4.001132E0,4.001132E0,2.00001E0,2.00001E0,5.584661E0,5.584661E0,6.4595914E0,5.584661E0,2.00001E0,1.0190272E-1,-1.1870738E-1,8.83076E-2,-1.3343756E-1,1.830677E-2,-1.2675582E-1,-1.1874179E-1,-6.987921E-2,-1.3759768E-1,-1.247068E-1,-1.6825818E-1,-2.3797463E-1,-1.2700082E-1,-1.7690307E-1,9.018334E-2,6.7892047E-3,-1.2134732E-1,2.844037E-2,-1.1441022E-1,-8.950811E-2,-1.2154062E-1,-1.1660194E-1,-4.001517E-2,-1.007694E-1,-1.3205554E-1,-1.223274E-1,-3.1348155E-3,-1.1732768E-1,-1.3312185E-1,3.1032894E-2,1.7930958E-1,-1.377679E-1,7.8724116E-2,1.16946794E-1,-4.0252823E-2,-1.4531572E-1,1.9525765E-2,1.0019594E-1,-1.2778509E-1,-2.3052774E-1,2.0596093E-2,1.1122999E-1],"split_indices":[70,70,12,70,71,0,71,6,11,70,6,3,6,71,12,71,10,8,3,70,70,70,70,0,4,47,67,67,70,71,70,71,71,71,67,71,70,0,70,70,11,13,70,70,70,70,8,0,0,0,0,0,0,0,0,0,0,0,0,0,0,0,0,0,0,0,0,0,0,0,0,0,0,0,0,0,0,0,0,0,0,0,0,0,0,0,0,0,0],"split_type":[0,0,0,0,0,0,0,0,0,0,0,0,0,0,0,0,0,0,0,0,0,0,0,0,0,0,0,0,0,0,0,0,0,0,0,0,0,0,0,0,0,0,0,0,0,0,0,0,0,0,0,0,0,0,0,0,0,0,0,0,0,0,0,0,0,0,0,0,0,0,0,0,0,0,0,0,0,0,0,0,0,0,0,0,0,0,0,0,0],"sum_hessian":[1.8492905E5,1.1871362E5,6.621543E4,6.338703E4,5.532659E4,3.437154E2,6.587171E4,1.5558729E4,4.7828305E4,4.601104E4,9.31555E3,2.985185E4,3.6019863E4,1.0428152E3,1.4515913E4,2.943353E3,4.488495E4,3.550159E4,1.0509446E4,1.1233793E3,8.192171E3,1.2961516E4,1.6890334E4,2.0132868E1,3.599973E4,4.6431537E2,5.784999E2,1.8976389E3,1.2618274E4,2.5221433E3,4.2120975E2,2.3267427E3,4.2558207E4,1.6879436E3,3.381365E4,3.6347834E3,6.874663E3,1.4739854E1,1.1086394E3,5.3728013E3,2.8193696E3,2.1904854E2,1.2742468E4,2.3989346E3,1.4491398E4,1.6348988E1,3.598338E4,7.369113E1,3.9062424E2,5.290768E2,4.94231E1,9.955629E2,9.0207605E2,1.1054333E4,1.5639413E3,4.28034E2,2.0941094E3,3.925909E2,2.8618813E1,1.8747811E3,4.519615E2,1.0870821E4,3.1687387E4,1.2262183E3,4.617253E2,3.328885E4,5.2479785E2,1.3729E3,2.2618833E3,3.1472783E3,3.727385E3,5.474391E2,5.6120026E2,3.388462E3,1.984339E3,1.2621743E2,2.6931523E3,8.543144E1,1.336171E2,4.5549207E2,1.2286976E4,8.908232E2,1.5081115E3,1.8182693E3,1.2673129E4,8.538835E0,7.8101535E0,1.7084283E2,3.581254E4],"tree_param":{"num_deleted":"0","num_feature":"75","num_nodes":"89","size_leaf_vector":"1"}},{"base_weights":[5.89345E-3,-3.1741786E-1,5.554036E-1,4.323473E-1,-6.061402E-1,8.847895E-1,4.721234E-1,6.8602306E-1,2.9134935E-1,-2.6601094E-1,-6.426107E-1,9.255716E-1,1.74741E-1,8.467958E-1,4.2344785E-1,7.5524306E-1,6.0529476E-1,5.0311893E-1,1.7323641E-1,-3.6038542E-1,7.6990646E-1,-3.4642875E-1,-6.795148E-1,1.0403961E0,7.0157576E-1,-1.4146811E-1,5.817976E-1,1.0983064E0,6.9157857E-1,-6.714439E-2,4.554038E-1,-1.1365985E-1,7.630014E-1,-1.218945E-1,6.136058E-1,6.686138E-1,2.667388E-1,-3.8998336E-1,4.4443178E-1,-2.1816854E-1,-5.0521356E-1,8.430832E-1,-1.8317658E-1,-9.0541095E-1,-1.6066253E-1,-9.4229466E-1,-6.5018123E-1,1.1068308E0,9.828548E-1,-1.5191697E-1,7.1101505E-1,-1.2610035E-1,6.121787E-1,1.1183286E-1,1.0430993E0,-1.04770355E-1,6.954744E-1,1.5734929E0,-1.1098401E-1,1.24571055E-1,4.8996854E-1,-1.0809443E-1,7.673382E-2,6.369593E-2,2.7111476E-2,7.775886E-2,4.77503E-2,2.5182816E-3,5.5018425E-2,4.2158514E-2,-6.7830555E-2,-1.5102641E-1,4.603831E-2,2.1288132E-2,-3.0614704E-2,2.2032527E-2,-5.5122394E-2,8.7616496E-2,-1.02493905E-1,-1.1262566E-1,1.0067002E-1,-1.2573487E-1,-5.4881137E-2,2.5587162E-2,-4.936734E-2,7.73953E-2,-9.825122E-2,-7.262351E-2,-5.4602057E-2,8.699181E-2,1.11150146E-1,-1.22913435E-1,9.8596565E-2,-1.5855439E-1,7.167309E-2,6.412427E-2,-1.237021E-1,1.0632185E-1,-1.0504152E-1,-1.0485017E-1,6.991446E-2,1.7467907E-1,-1.528311E-1,-4.0011443E-2,1.2788503E-2,-7.258762E-2,3.9320853E-2,5.379468E-2,2.1574244E-2],"categories":[],"categories_nodes":[],"categories_segments":[],"categories_sizes":[],"default_left":[0,0,0,0,0,0,0,0,0,0,0,0,0,0,0,0,0,0,0,0,0,0,0,0,0,0,0,0,0,0,0,0,0,0,0,0,0,0,0,0,0,0,0,0,0,0,0,0,0,0,0,0,0,0,0,0,0,1,0,0,0,0,0,0,0,0,0,0,0,0,0,0,0,0,0,0,0,0,0,0,0,0,0,0,0,0,0,0,0,0,0,0,0,0,0,0,0,0,0,0,0,0,0,0,0,0,0,0,0],"id":15,"left_children":[1,3,5,7,9,11,13,15,17,19,21,23,25,27,29,31,33,35,37,39,41,43,45,47,49,-1,51,53,55,57,59,-1,61,-1,63,65,67,69,71,73,75,77,79,81,83,85,87,89,91,-1,93,-1,95,-1,97,-1,99,101,103,105,107,-1,-1,-1,-1,-1,-1,-1,-1,-1,-1,-1,-1,-1,-1,-1,-1,-1,-1,-1,-1,-1,-1,-1,-1,-1,-1,-1,-1,-1,-1,-1,-1,-1,-1,-1,-1,-1,-1,-1,-1,-1,-1,-1,-1,-1,-1,-1,-1],"loss_changes":[3.0797873E4,2.3625703E4,1.7610156E3,1.0851089E3,9.772676E2,3.750547E2,9.34416E2,6.0114258E1,4.8778076E2,7.4645123E2,7.7760547E2,3.144336E2,4.5697052E2,2.2926807E2,7.112256E2,8.646094E1,7.6687744E1,2.7299744E2,1.9129253E3,1.4398224E2,4.4622223E1,8.188002E2,4.871543E2,2.9873047E1,8.819409E1,0E0,3.223607E1,1.3171387E0,2.5435669E1,1.9977373E2,4.8696875E2,0E0,4.7277832E1,0E0,3.971338E1,8.515662E1,1.9699187E2,9.527719E2,2.642638E2,1.3398984E2,1.15801575E2,3.7500946E1,5.3071796E1,2.461676E2,8.2137933E2,4.3920312E2,4.5057227E2,3.1831055E0,3.1137207E1,0E0,5.5465576E1,0E0,3.0544067E1,0E0,2.6931396E1,0E0,2.4024536E1,4.1527954E1,1.8678813E2,9.210302E2,5.0723145E2,0E0,0E0,0E0,0E0,0E0,0E0,0E0,0E0,0E0,0E0,0E0,0E0,0E0,0E0,0E0,0E0,0E0,0E0,0E0,0E0,0E0,0E0,0E0,0E0,0E0,0E0,0E0,0E0,0E0,0E0,0E0,0E0,0E0,0E0,0E0,0E0,0E0,0E0,0E0,0E0,0E0,0E0,0E0,0E0,0E0,0E0,0E0,0E0],"parents":[2147483647,0,0,1,1,2,2,3,3,4,4,5,5,6,6,7,7,8,8,9,9,10,10,11,11,12,12,13,13,14,14,15,15,16,16,17,17,18,18,19,19,20,20,21,21,22,22,23,23,24,24,26,26,27,27,28,28,29,29,30,30,32,32,34,34,35,35,36,36,37,37,38,38,39,39,40,40,41,41,42,42,43,43,44,44,45,45,46,46,47,47,48,48,50,50,52,52,54,54,56,56,57,57,58,58,59,59,60,60],"right_children":[2,4,6,8,10,12,14,16,18,20,22,24,26,28,30,32,34,36,38,40,42,44,46,48,50,-1,52,54,56,58,60,-1,62,-1,64,66,68,70,72,74,76,78,80,82,84,86,88,90,92,-1,94,-1,96,-1,98,-1,100,102,104,106,108,-1,-1,-1,-1,-1,-1,-1,-1,-1,-1,-1,-1,-1,-1,-1,-1,-1,-1,-1,-1,-1,-1,-1,-1,-1,-1,-1,-1,-1,-1,-1,-1,-1,-1,-1,-1,-1,-1,-1,-1,-1,-1,-1,-1,-1,-1,-1,-1],"split_conditions":[2.2E1,4E0,2.00001E0,2.00001E0,2.00001E0,4.600001E1,2.00001E0,2.00001E0,2.00001E0,1.2E1,2.00001E0,2.00001E0,2.00001E0,4.600001E1,2.00001E0,2.00001E0,2.00001E0,2.00001E0,2.00001E0,2.00001E0,1.58701E5,1.2E1,2.00001E0,2.691E3,2.00001E0,-1.4146811E-1,2.00001E0,2.607E3,2.00001E0,2.00001E0,2.00001E0,-1.1365985E-1,2.00001E0,-1.218945E-1,1.1214218E2,5E0,2.376E3,2.00001E0,2.00001E0,3.29013E1,2.00001E0,-7.415404E1,1.2577199E2,2.00001E0,2.00001E0,2.00001E0,-8.42931E1,2.00001E0,2.916E3,-1.5191697E-1,2.00001E0,-1.2610035E-1,4.61966E1,1.1183286E-1,-7.37552E1,-1.04770355E-1,2.00001E0,2E0,8.122774E1,2.00001E0,4.600001E1,-1.0809443E-1,7.673382E-2,6.369593E-2,2.7111476E-2,7.775886E-2,4.77503E-2,2.5182816E-3,5.5018425E-2,4.2158514E-2,-6.7830555E-2,-1.5102641E-1,4.603831E-2,2.1288132E-2,-3.0614704E-2,2.2032527E-2,-5.5122394E-2,8.7616496E-2,-1.02493905E-1,-1.1262566E-1,1.0067002E-1,-1.2573487E-1,-5.4881137E-2,2.5587162E-2,-4.936734E-2,7.73953E-2,-9.825122E-2,-7.262351E-2,-5.4602057E-2,8.699181E-2,1.11150146E-1,-1.22913435E-1,9.8596565E-2,-1.5855439E-1,7.167309E-2,6.412427E-2,-1.237021E-1,1.0632185E-1,-1.0504152E-1,-1.0485017E-1,6.991446E-2,1.7467907E-1,-1.528311E-1,-4.0011443E-2,1.2788503E-2,-7.258762E-2,3.9320853E-2,5.379468E-2,2.1574244E-2],"split_indices":[71,71,10,3,3,71,3,13,1,71,10,13,13,71,0,44,31,13,13,13,67,71,5,67,35,0,51,67,54,20,5,0,59,0,74,72,67,2,30,65,48,69,74,13,13,55,66,15,67,0,31,0,65,0,66,0,34,72,74,13,71,0,0,0,0,0,0,0,0,0,0,0,0,0,0,0,0,0,0,0,0,0,0,0,0,0,0,0,0,0,0,0,0,0,0,0,0,0,0,0,0,0,0,0,0,0,0,0,0],"split_type":[0,0,0,0,0,0,0,0,0,0,0,0,0,0,0,0,0,0,0,0,0,0,0,0,0,0,0,0,0,0,0,0,0,0,0,0,0,0,0,0,0,0,0,0,0,0,0,0,0,0,0,0,0,0,0,0,0,0,0,0,0,0,0,0,0,0,0,0,0,0,0,0,0,0,0,0,0,0,0,0,0,0,0,0,0,0,0,0,0,0,0,0,0,0,0,0,0,0,0,0,0,0,0,0,0,0,0,0,0],"sum_hessian":[1.733481E5,1.091366E5,6.4211492E4,3.0342232E4,7.8794375E4,1.2956585E4,5.125491E4,1.0838441E4,1.9503791E4,7.6313853E3,7.1162984E4,1.2252549E4,7.040359E2,5.891287E3,4.536362E4,5.8306367E3,5.007804E3,6.982076E3,1.2521714E4,6.994795E3,6.3658997E2,7.885611E3,6.327738E4,8.0978135E3,4.1547354E3,1.4303926E2,5.6099664E2,2.2459397E3,3.6453474E3,2.774103E3,4.258952E4,2.3219175E1,5.807418E3,2.2050844E1,4.9857534E3,4.1057344E3,2.8763418E3,4.0695713E3,8.452143E3,3.5304783E3,3.464317E3,5.9130554E2,4.5284405E1,1.9659799E3,5.919631E3,6.3510933E3,5.6926285E4,3.7499932E3,4.34782E3,1.6908087E1,4.137827E3,8.441823E0,5.525548E2,1.6340543E3,6.118853E2,7.548099E0,3.6377993E3,7.128977E1,2.7028132E3,4.0291882E3,3.8560332E4,1.3043825E1,5.794374E3,4.666685E3,3.1906845E2,2.6128E3,1.4929342E3,1.5535093E3,1.3228325E3,1.0666646E3,3.002907E3,6.765714E1,8.384485E3,5.98197E2,2.9322812E3,2.0636417E2,3.257953E3,5.815378E2,9.767775E0,2.5291878E1,1.9992527E1,9.8818634E2,9.777935E2,2.6301E3,3.2895308E3,1.4500249E2,6.2060903E3,3.2898883E4,2.40274E4,7.611971E1,3.6738735E3,5.5526094E0,4.3422676E3,9.586684E0,4.1282407E3,5.4464777E2,7.907018E0,6.065484E2,5.3369308E0,7.0419354E0,3.6307573E3,6.79313E1,3.358473E0,1.222458E3,1.4803551E3,9.6680225E2,3.062386E3,3.2817637E4,5.742692E3],"tree_param":{"num_deleted":"0","num_feature":"75","num_nodes":"109","size_leaf_vector":"1"}},{"base_weights":[2.8895098E-3,-5.053488E-1,9.411443E-1,-1.7664321E-1,-8.879959E-1,-1.1561205E-1,9.520998E-1,1.2633445E0,-4.083602E-1,-1.0266902E0,-2.8054777E-1,7.983781E-1,1.0619465E0,1.205451E0,1.5120782E0,-6.652551E-1,1.4440632E-1,-4.815208E-1,-1.0878217E0,4.380545E-1,-4.8043802E-1,-1.9690553E0,8.668545E-1,9.7234416E-1,1.1087015E0,1.8847598E0,1.196748E0,-1.5291546E-1,1.5153015E0,-1.0974299E0,-4.4713306E-1,-2.4580659E-1,6.4988685E-1,-1.0032244E0,2.8727123E-1,-1.1466771E0,-1.012191E0,-1.21336795E-1,9.535059E-1,-1.3521887E-1,-8.3910805E-1,-1.7857978E0,-3.2168062E0,-1.5083619E0,9.305695E-1,1.0958549E0,8.955007E-1,1.1298558E0,1.1015495E0,1.4528887E-1,2.2300892E-1,1.1972771E-1,-9.6595034E-2,1.5051207E-1,1.8207745E-1,-1.1434628E-1,-7.182307E-2,-1.4276944E-1,-3.8175218E-2,6.637201E-2,-6.1210316E-2,-1.5025188E-1,7.235047E-2,-3.8637023E-3,-1.1787107E-1,5.9966084E-2,-9.4790705E-2,-2.7360849E-3,-1.1525267E-1,-1.0312348E-1,-5.4468433E-3,1.0106347E-1,-1.295742E-1,-8.703181E-2,6.919221E-2,-1.2446745E-1,4.8499476E-2,-1.620798E-1,-2.1115394E-1,-1.7841204E-1,-3.49364E-1,-2.3712054E-1,2.964398E-2,1.0893178E-1,7.4611455E-2,-3.0591035E-1,1.0977753E-1,4.392298E-2,9.65259E-2,1.13462426E-1,1.04747094E-1,1.107769E-1,1.0886401E-1],"categories":[],"categories_nodes":[],"categories_segments":[],"categories_sizes":[],"default_left":[0,0,0,0,1,0,0,1,1,0,0,0,0,0,0,0,0,0,1,0,0,0,0,0,0,0,0,0,0,0,0,0,0,1,0,0,0,0,0,0,0,0,0,0,1,0,0,0,0,0,0,0,0,0,0,0,0,0,0,0,0,0,0,0,0,0,0,0,0,0,0,0,0,0,0,0,0,0,0,0,0,0,0,0,0,0,0,0,0,0,0,0,0],"id":16,"left_children":[1,3,5,7,9,-1,11,13,15,17,19,21,23,25,27,29,31,33,35,37,39,41,43,45,47,49,51,-1,53,55,57,59,61,63,65,67,69,-1,71,73,75,77,79,81,83,85,87,89,91,-1,-1,-1,-1,-1,-1,-1,-1,-1,-1,-1,-1,-1,-1,-1,-1,-1,-1,-1,-1,-1,-1,-1,-1,-1,-1,-1,-1,-1,-1,-1,-1,-1,-1,-1,-1,-1,-1,-1,-1,-1,-1,-1,-1],"loss_changes":[8.0461695E4,1.3765945E4,1.3632812E3,1.9645188E4,4.2605273E3,0E0,9.950547E2,1.15694336E2,7.2017305E3,1.3716406E3,1.3507458E3,4.660534E3,1.4301172E2,3.691211E1,1.73833E1,3.2633828E3,3.1742124E3,1.6660254E3,1.636289E2,1.7433593E3,9.107572E2,1.3006152E2,3.6321914E3,1.1102832E2,2.1757812E0,8.998749E0,8.643555E0,0E0,2.0356445E0,2.018877E2,1.4747524E3,3.0261768E3,1.1119866E3,4.1879614E2,6.487076E2,1.3623242E2,2.9558984E2,0E0,2.0181482E2,2.2805308E3,1.9379978E3,2.453247E1,2.343811E1,9.773191E2,6.833672E2,3.9440918E1,2.3131299E2,1.0380859E0,1.5234375E-1,0E0,0E0,0E0,0E0,0E0,0E0,0E0,0E0,0E0,0E0,0E0,0E0,0E0,0E0,0E0,0E0,0E0,0E0,0E0,0E0,0E0,0E0,0E0,0E0,0E0,0E0,0E0,0E0,0E0,0E0,0E0,0E0,0E0,0E0,0E0,0E0,0E0,0E0,0E0,0E0,0E0,0E0,0E0,0E0],"parents":[2147483647,0,0,1,1,2,2,3,3,4,4,6,6,7,7,8,8,9,9,10,10,11,11,12,12,13,13,14,14,15,15,16,16,17,17,18,18,19,19,20,20,21,21,22,22,23,23,24,24,25,25,26,26,28,28,29,29,30,30,31,31,32,32,33,33,34,34,35,35,36,36,38,38,39,39,40,40,41,41,42,42,43,43,44,44,45,45,46,46,47,47,48,48],"right_children":[2,4,6,8,10,-1,12,14,16,18,20,22,24,26,28,30,32,34,36,38,40,42,44,46,48,50,52,-1,54,56,58,60,62,64,66,68,70,-1,72,74,76,78,80,82,84,86,88,90,92,-1,-1,-1,-1,-1,-1,-1,-1,-1,-1,-1,-1,-1,-1,-1,-1,-1,-1,-1,-1,-1,-1,-1,-1,-1,-1,-1,-1,-1,-1,-1,-1,-1,-1,-1,-1,-1,-1,-1,-1,-1,-1,-1,-1],"split_conditions":[5.4272823E0,3.2449334E0,2.00001E0,2.00001E0,2.2E1,-1.1561205E-1,6.4595914E0,4E0,2.2E1,2.00001E0,2.00001E0,2.00001E0,2.2E1,1.9657128E0,2.00001E0,2.0425181E0,2.824944E0,4.693364E0,1.2E1,4.572647E0,4.001132E0,2.2E1,2.00001E0,4E0,2.00001E0,2.00001E0,3.2192757E0,-1.5291546E-1,-7.440167E1,8.5253E4,2.00001E0,2.00001E0,2.00001E0,6E0,4.9349055E0,3.2718477E0,5.310048E0,-1.21336795E-1,5.020652E0,3.893044E0,5.178914E0,6.0541344E0,5.584661E0,2.2E1,4E0,2.00001E0,1.2E1,4.600001E1,2.00001E0,1.4528887E-1,2.2300892E-1,1.1972771E-1,-9.6595034E-2,1.5051207E-1,1.8207745E-1,-1.1434628E-1,-7.182307E-2,-1.4276944E-1,-3.8175218E-2,6.637201E-2,-6.1210316E-2,-1.5025188E-1,7.235047E-2,-3.8637023E-3,-1.1787107E-1,5.9966084E-2,-9.4790705E-2,-2.7360849E-3,-1.1525267E-1,-1.0312348E-1,-5.4468433E-3,1.0106347E-1,-1.295742E-1,-8.703181E-2,6.919221E-2,-1.2446745E-1,4.8499476E-2,-1.620798E-1,-2.1115394E-1,-1.7841204E-1,-3.49364E-1,-2.3712054E-1,2.964398E-2,1.0893178E-1,7.4611455E-2,-3.0591035E-1,1.0977753E-1,4.392298E-2,9.65259E-2,1.13462426E-1,1.04747094E-1,1.107769E-1,1.0886401E-1],"split_indices":[70,70,12,1,71,0,70,71,71,0,0,10,71,70,25,70,70,70,71,70,70,71,7,71,7,29,70,0,69,64,7,12,5,71,70,70,70,0,70,70,70,70,70,71,71,30,71,71,10,0,0,0,0,0,0,0,0,0,0,0,0,0,0,0,0,0,0,0,0,0,0,0,0,0,0,0,0,0,0,0,0,0,0,0,0,0,0,0,0,0,0,0,0],"split_type":[0,0,0,0,0,0,0,0,0,0,0,0,0,0,0,0,0,0,0,0,0,0,0,0,0,0,0,0,0,0,0,0,0,0,0,0,0,0,0,0,0,0,0,0,0,0,0,0,0,0,0,0,0,0,0,0,0,0,0,0,0,0,0,0,0,0,0,0,0,0,0,0,0,0,0,0,0,0,0,0,0,0,0,0,0,0,0,0,0,0,0,0,0],"sum_hessian":[1.6873138E5,1.0944639E5,5.928498E4,5.8873617E4,5.0572773E4,3.0753424E2,5.8977445E4,8.1599253E3,5.071369E4,4.1171656E4,9.401118E3,2.4583332E4,3.4394113E4,6.6240117E3,1.5359137E3,3.4622766E4,1.6090926E4,4.1521143E3,3.7019543E4,2.0456931E3,7.3554253E3,5.9292346E2,2.3990408E4,1.1800699E4,2.2593414E4,8.10636E1,6.5429478E3,1.1248916E0,1.5347888E3,1.1611789E4,2.3010977E4,9.081131E3,7.009795E3,2.4733738E3,1.6787404E3,2.0810639E4,1.6208903E4,4.863031E2,1.55939E3,3.748693E3,3.6067322E3,5.191125E2,7.3810974E1,6.2613696E2,2.3364271E4,4.5209297E3,7.2797695E3,5.668836E3,1.6924578E4,3.8332264E1,4.273133E1,6.541794E3,1.1538048E0,1.4910228E3,4.3765987E1,1.0352974E4,1.2588156E3,1.4370935E3,2.1573883E4,2.6070144E3,6.4741167E3,2.3118245E2,6.778613E3,3.8090286E2,2.092471E3,1.3402832E3,3.384572E2,1.08220184E2,2.070242E4,1.5892808E4,3.160952E2,1.5213011E3,3.808897E1,1.9847489E3,1.7639442E3,2.761085E3,8.456471E2,3.4853995E2,1.7057251E2,1.3158272E1,6.0652702E1,4.2340216E2,2.0273483E2,1.255452E4,1.0809752E4,1.3532228E0,4.5195767E3,9.663583E2,6.313411E3,5.346595E3,3.2224118E2,1.1364577E4,5.5600005E3],"tree_param":{"num_deleted":"0","num_feature":"75","num_nodes":"93","size_leaf_vector":"1"}},{"base_weights":[4.2696632E-3,-4.696984E-1,9.0906477E-1,-1.5034619E-1,-8.8035536E-1,-1.1388989E-1,9.199993E-1,1.2325186E0,-3.4987527E-1,-9.9547595E-2,-9.959912E-1,7.557377E-1,1.0397112E0,1.179677E0,1.4372E0,-6.465906E-1,1.6468549E-1,-1.1267676E0,5.136539E-1,-1.0757557E0,-5.7844234E-1,1.0931078E0,4.5839142E-2,9.4206196E-1,1.0935892E0,1.1816541E0,-1.26847E-1,1.4442692E0,-9.15015E-2,8.4331894E-1,-7.451655E-1,-1.4034078E0,2.556455E-1,-1.11251965E-1,-1.1782985E-1,6.244654E-1,-1.2236761E0,-7.759948E-1,-1.0924759E0,-7.3658186E-1,4.689732E-1,-7.396198E-2,1.1132064E0,-5.5697095E-1,8.1113946E-1,1.0684402E0,8.661809E-1,7.713809E-1,1.0956459E0,1.7301951E-1,1.1738081E-1,1.465198E-1,1.3430946E-1,1.20575346E-1,-1.6308638E-1,-9.039997E-2,-2.2763932E-2,-1.23938836E-1,-1.5567791E-1,-1.4682586E-1,3.434901E-2,1.17118694E-1,3.796616E-2,-1.4910147E-1,-1.187624E-1,2.898942E-1,-8.667695E-2,-1.1018979E-1,-7.466048E-2,-3.2876644E-2,-1.2174119E-1,1.2765794E-1,-1.6299616E-1,-1.3923518E-1,5.0434023E-2,7.73736E-2,1.1260873E-1,-1.0539716E-1,9.732648E-3,-2.7461275E-1,8.847306E-2,-2.7490613E-1,1.0706898E-1,4.8972156E-2,9.3175E-2,-1.3842276E-1,9.805804E-2,1.1155303E-1,1.0888441E-1],"categories":[],"categories_nodes":[],